{"learner":{"attributes":{"best_iteration":"699","best_ntree_limit":"700"},"feature_names":[],"feature_types":[],"gradient_booster":{"model":{"gbtree_model_param":{"num_parallel_tree":"1","num_trees":"700","size_leaf_vector":"0"},"tree_info":[0,0,0,0,0,0,0,0,0,0,0,0,0,0,0,0,0,0,0,0,0,0,0,0,0,0,0,0,0,0,0,0,0,0,0,0,0,0,0,0,0,0,0,0,0,0,0,0,0,0,0,0,0,0,0,0,0,0,0,0,0,0,0,0,0,0,0,0,0,0,0,0,0,0,0,0,0,0,0,0,0,0,0,0,0,0,0,0,0,0,0,0,0,0,0,0,0,0,0,0,0,0,0,0,0,0,0,0,0,0,0,0,0,0,0,0,0,0,0,0,0,0,0,0,0,0,0,0,0,0,0,0,0,0,0,0,0,0,0,0,0,0,0,0,0,0,0,0,0,0,0,0,0,0,0,0,0,0,0,0,0,0,0,0,0,0,0,0,0,0,0,0,0,0,0,0,0,0,0,0,0,0,0,0,0,0,0,0,0,0,0,0,0,0,0,0,0,0,0,0,0,0,0,0,0,0,0,0,0,0,0,0,0,0,0,0,0,0,0,0,0,0,0,0,0,0,0,0,0,0,0,0,0,0,0,0,0,0,0,0,0,0,0,0,0,0,0,0,0,0,0,0,0,0,0,0,0,0,0,0,0,0,0,0,0,0,0,0,0,0,0,0,0,0,0,0,0,0,0,0,0,0,0,0,0,0,0,0,0,0,0,0,0,0,0,0,0,0,0,0,0,0,0,0,0,0,0,0,0,0,0,0,0,0,0,0,0,0,0,0,0,0,0,0,0,0,0,0,0,0,0,0,0,0,0,0,0,0,0,0,0,0,0,0,0,0,0,0,0,0,0,0,0,0,0,0,0,0,0,0,0,0,0,0,0,0,0,0,0,0,0,0,0,0,0,0,0,0,0,0,0,0,0,0,0,0,0,0,0,0,0,0,0,0,0,0,0,0,0,0,0,0,0,0,0,0,0,0,0,0,0,0,0,0,0,0,0,0,0,0,0,0,0,0,0,0,0,0,0,0,0,0,0,0,0,0,0,0,0,0,0,0,0,0,0,0,0,0,0,0,0,0,0,0,0,0,0,0,0,0,0,0,0,0,0,0,0,0,0,0,0,0,0,0,0,0,0,0,0,0,0,0,0,0,0,0,0,0,0,0,0,0,0,0,0,0,0,0,0,0,0,0,0,0,0,0,0,0,0,0,0,0,0,0,0,0,0,0,0,0,0,0,0,0,0,0,0,0,0,0,0,0,0,0,0,0,0,0,0,0,0,0,0,0,0,0,0,0,0,0,0,0,0,0,0,0,0,0,0,0,0,0,0,0,0,0,0,0,0,0,0,0,0,0,0,0,0,0,0,0,0,0,0,0,0,0,0,0,0,0,0,0,0,0,0,0,0,0,0,0,0,0,0,0,0,0,0,0,0,0,0,0,0,0,0,0,0,0,0,0,0,0,0,0,0,0,0,0,0,0,0,0,0,0,0,0,0,0,0,0,0,0,0,0,0,0,0,0,0,0,0,0,0,0,0,0,0,0,0,0,0,0,0,0,0,0,0,0,0,0,0,0,0,0,0,0,0,0,0,0,0,0,0,0,0,0,0,0,0,0,0,0,0,0,0,0,0,0,0,0],"trees":[{"base_weights":[0E0],"categories":[],"categories_nodes":[],"categories_segments":[],"categories_sizes":[],"default_left":[0],"id":0,"left_children":[-1],"loss_changes":[0E0],"parents":[2147483647],"right_children":[-1],"split_conditions":[0E0],"split_indices":[0],"split_type":[0],"sum_hessian":[2.5E-1],"tree_param":{"num_deleted":"0","num_feature":"4","num_nodes":"1","size_leaf_vector":"0"}},{"base_weights":[0E0],"categories":[],"categories_nodes":[],"categories_segments":[],"categories_sizes":[],"default_left":[0],"id":1,"left_children":[-1],"loss_changes":[0E0],"parents":[2147483647],"right_children":[-1],"split_conditions":[0E0],"split_indices":[0],"split_type":[0],"sum_hessian":[2.5E-1],"tree_param":{"num_deleted":"0","num_feature":"4","num_nodes":"1","size_leaf_vector":"0"}},{"base_weights":[0E0],"categories":[],"categories_nodes":[],"categories_segments":[],"categories_sizes":[],"default_left":[0],"id":2,"left_children":[-1],"loss_changes":[0E0],"parents":[2147483647],"right_children":[-1],"split_conditions":[0E0],"split_indices":[0],"split_type":[0],"sum_hessian":[2.5E-1],"tree_param":{"num_deleted":"0","num_feature":"4","num_nodes":"1","size_leaf_vector":"0"}},{"base_weights":[0E0],"categories":[],"categories_nodes":[],"categories_segments":[],"categories_sizes":[],"default_left":[0],"id":3,"left_children":[-1],"loss_changes":[0E0],"parents":[2147483647],"right_children":[-1],"split_conditions":[0E0],"split_indices":[0],"split_type":[0],"sum_hessian":[2.5E-1],"tree_param":{"num_deleted":"0","num_feature":"4","num_nodes":"1","size_leaf_vector":"0"}},{"base_weights":[0E0],"categories":[],"categories_nodes":[],"categories_segments":[],"categories_sizes":[],"default_left":[0],"id":4,"left_children":[-1],"loss_changes":[0E0],"parents":[2147483647],"right_children":[-1],"split_conditions":[0E0],"split_indices":[0],"split_type":[0],"sum_hessian":[2.5E-1],"tree_param":{"num_deleted":"0","num_feature":"4","num_nodes":"1","size_leaf_vector":"0"}},{"base_weights":[0E0],"categories":[],"categories_nodes":[],"categories_segments":[],"categories_sizes":[],"default_left":[0],"id":5,"left_children":[-1],"loss_changes":[0E0],"parents":[2147483647],"right_children":[-1],"split_conditions":[0E0],"split_indices":[0],"split_type":[0],"sum_hessian":[2.5E-1],"tree_param":{"num_deleted":"0","num_feature":"4","num_nodes":"1","size_leaf_vector":"0"}},{"base_weights":[0E0],"categories":[],"categories_nodes":[],"categories_segments":[],"categories_sizes":[],"default_left":[0],"id":6,"left_children":[-1],"loss_changes":[0E0],"parents":[2147483647],"right_children":[-1],"split_conditions":[0E0],"split_indices":[0],"split_type":[0],"sum_hessian":[2.5E-1],"tree_param":{"num_deleted":"0","num_feature":"4","num_nodes":"1","size_leaf_vector":"0"}},{"base_weights":[0E0],"categories":[],"categories_nodes":[],"categories_segments":[],"categories_sizes":[],"default_left":[0],"id":7,"left_children":[-1],"loss_changes":[0E0],"parents":[2147483647],"right_children":[-1],"split_conditions":[0E0],"split_indices":[0],"split_type":[0],"sum_hessian":[2.5E-1],"tree_param":{"num_deleted":"0","num_feature":"4","num_nodes":"1","size_leaf_vector":"0"}},{"base_weights":[0E0],"categories":[],"categories_nodes":[],"categories_segments":[],"categories_sizes":[],"default_left":[0],"id":8,"left_children":[-1],"loss_changes":[0E0],"parents":[2147483647],"right_children":[-1],"split_conditions":[0E0],"split_indices":[0],"split_type":[0],"sum_hessian":[2.5E-1],"tree_param":{"num_deleted":"0","num_feature":"4","num_nodes":"1","size_leaf_vector":"0"}},{"base_weights":[0E0],"categories":[],"categories_nodes":[],"categories_segments":[],"categories_sizes":[],"default_left":[0],"id":9,"left_children":[-1],"loss_changes":[0E0],"parents":[2147483647],"right_children":[-1],"split_conditions":[0E0],"split_indices":[0],"split_type":[0],"sum_hessian":[2.5E-1],"tree_param":{"num_deleted":"0","num_feature":"4","num_nodes":"1","size_leaf_vector":"0"}},{"base_weights":[6.666667E-2,3.846154E-1,-4.0000004E-1,-6.0606062E-2,9.5652175E-1,-6.666667E-1,3.6363637E-1,-1.5E-1,4.1052634E-1,-3.6E-1,6.666667E-2,3E-1,-0E0,-1.6363637E-1,1.6363637E-1],"categories":[],"categories_nodes":[],"categories_segments":[],"categories_sizes":[],"default_left":[0,0,0,0,0,0,0,0,0,0,0,0,0,0,0],"id":10,"left_children":[1,3,-1,5,7,9,11,-1,-1,-1,-1,-1,13,-1,-1],"loss_changes":[7.189744E0,3.3680956E0,0E0,2.3636365E0,4.1338677E0,2.0444446E0,1.2727273E0,0E0,0E0,0E0,0E0,0E0,1.6363636E0,0E0,0E0],"parents":[2147483647,0,0,1,1,3,3,4,4,5,5,6,6,12,12],"right_children":[2,4,-1,6,8,10,12,-1,-1,-1,-1,-1,14,-1,-1],"split_conditions":[-4.2082082E-2,1.3147496E-1,-4.0000004E-1,-1.0287021E-1,-4.966521E-2,6.0758066E-1,-7.328972E-2,-1.5E-1,4.1052634E-1,-3.6E-1,6.666667E-2,3E-1,-6.159131E-2,-1.6363637E-1,1.6363637E-1],"split_indices":[0,2,0,0,3,3,0,0,0,0,0,0,0,0,0],"split_type":[0,0,0,0,0,0,0,0,0,0,0,0,0,0,0],"sum_hessian":[1.4E1,1.2E1,2E0,7.25E0,4.75E0,2.75E0,4.5E0,1E0,3.75E0,1.5E0,1.25E0,1E0,3.5E0,1.75E0,1.75E0],"tree_param":{"num_deleted":"0","num_feature":"4","num_nodes":"15","size_leaf_vector":"0"}},{"base_weights":[-1.7766102E-1,-5.316984E-1,7.2361547E-1,-9.275274E-1,2.5215942E-1,1.0659868E-2,2.912871E-1,-3.2160982E-1,-3.6012143E-2],"categories":[],"categories_nodes":[],"categories_segments":[],"categories_sizes":[],"default_left":[1,1,0,0,0,0,0,0,0],"id":11,"left_children":[1,3,5,7,-1,-1,-1,-1,-1],"loss_changes":[4.914983E0,6.6294584E0,7.190573E-1,9.0213156E-1,0E0,0E0,0E0,0E0,0E0],"parents":[2147483647,0,0,1,1,2,2,3,3],"right_children":[2,4,6,8,-1,-1,-1,-1,-1],"split_conditions":[7.112234E-1,1.9443582E-1,-1.5877034E-1,5.4339796E-1,2.5215942E-1,1.0659868E-2,2.912871E-1,-3.2160982E-1,-3.6012143E-2],"split_indices":[3,2,0,3,0,0,0,0,0],"split_type":[0,0,0,0,0,0,0,0,0],"sum_hessian":[1.3197563E1,9.769853E0,3.427711E0,7.83412E0,1.9357322E0,1.2087452E0,2.2189658E0,6.3670726E0,1.4670472E0],"tree_param":{"num_deleted":"0","num_feature":"4","num_nodes":"9","size_leaf_vector":"0"}},{"base_weights":[-5.400045E-3,-8.1279933E-1,2.9021475E-1,-8.864618E-2,-2.9639044E-1,-5.388057E-2,3.359103E-1,-3.988929E-1,6.143527E-1,1.6197266E-1,-9.218024E-1,2.233595E-2,2.646746E-1,-3.237994E-1,-8.374149E-2],"categories":[],"categories_nodes":[],"categories_segments":[],"categories_sizes":[],"default_left":[1,0,0,0,0,0,0,0,0,0,0,0,0,0,0],"id":12,"left_children":[1,3,5,-1,-1,7,-1,9,11,-1,13,-1,-1,-1,-1],"loss_changes":[3.6291468E0,7.7178955E-2,3.2409382E0,0E0,0E0,2.2808783E0,0E0,3.6541777E0,4.2613995E-1,0E0,1.5419221E-1,0E0,0E0,0E0,0E0],"parents":[2147483647,0,0,1,1,2,2,5,5,7,7,8,8,10,10],"right_children":[2,4,6,-1,-1,8,-1,10,12,-1,14,-1,-1,-1,-1],"split_conditions":[-1.8597284E-2,-6.740718E-2,1.6284706E-1,-8.864618E-2,-2.9639044E-1,7.112234E-1,3.359103E-1,-2.4702055E-2,-1.3782363E-1,1.6197266E-1,6.0758066E-1,2.233595E-2,2.646746E-1,-3.237994E-1,-8.374149E-2],"split_indices":[3,0,2,0,0,3,0,2,0,0,3,0,0,0,0],"split_type":[0,0,0,0,0,0,0,0,0,0,0,0,0,0,0],"sum_hessian":[1.3216826E1,3.0733106E0,1.0143516E1,1.457086E0,1.6162246E0,7.830314E0,2.313202E0,5.4298944E0,2.4004195E0,1.9308493E0,3.4990451E0,1.219878E0,1.1805416E0,2.2645082E0,1.2345369E0],"tree_param":{"num_deleted":"0","num_feature":"4","num_nodes":"15","size_leaf_vector":"0"}},{"base_weights":[-8.395963E-2,2.6334706E-1,-2.5002256E-1,-5.703509E-1,4.3538356E-1,3.436976E-2,-6.770854E-1,2.732916E-1,-4.004105E-2,-4.5207298E-1,-3.1152794E-1,9.827138E-2,-7.8281516E-1,-3.330169E-2,-2.867796E-1],"categories":[],"categories_nodes":[],"categories_segments":[],"categories_sizes":[],"default_left":[0,0,0,0,0,0,0,0,0,0,0,0,0,0,0],"id":13,"left_children":[1,-1,3,5,7,-1,9,-1,-1,11,-1,-1,13,-1,-1],"loss_changes":[2.497548E0,0E0,3.0896792E0,7.539656E-1,1.3901432E0,0E0,1.9317842E-1,0E0,0E0,2.0081477E0,0E0,0E0,4.8293185E-1,0E0,0E0],"parents":[2147483647,0,0,2,2,3,3,4,4,6,6,9,9,12,12],"right_children":[2,-1,4,6,8,-1,10,-1,-1,12,-1,-1,14,-1,-1],"split_conditions":[-5.981982E-1,2.6334706E-1,1.6075061E-1,-4.3042205E-2,3.3829406E-1,3.436976E-2,7.94865E-2,2.732916E-1,-4.004105E-2,-6.740718E-2,-3.1152794E-1,9.827138E-2,-3.4234974E-1,-3.330169E-2,-2.867796E-1],"split_indices":[1,0,2,2,1,0,2,0,0,0,0,0,1,0,0],"split_type":[0,0,0,0,0,0,0,0,0,0,0,0,0,0,0],"sum_hessian":[1.3263225E1,1.3217845E0,1.1941441E1,8.252468E0,3.688972E0,1.1027479E0,7.14972E0,1.6816319E0,2.00734E0,5.793266E0,1.3564545E0,1.7284509E0,4.064815E0,1.1691079E0,2.895707E0],"tree_param":{"num_deleted":"0","num_feature":"4","num_nodes":"15","size_leaf_vector":"0"}},{"base_weights":[-3.4932016E-6,-2.3519081E-1,2.3336755E-1,-4.9544133E-2,6.858716E-1,3.5495704E-1,-2.3892285E-1,2.2350553E-2,2.7018586E-1,2.592887E-1,-5.3090584E-2,-1.3942741E-1,1.6975722E-1],"categories":[],"categories_nodes":[],"categories_segments":[],"categories_sizes":[],"default_left":[0,0,1,1,0,0,0,0,0,0,0,0,0],"id":14,"left_children":[1,-1,3,5,7,9,-1,-1,-1,-1,11,-1,-1],"loss_changes":[2.617151E0,0E0,1.4451883E0,2.613575E0,4.9850726E-1,1.2298174E0,0E0,0E0,0E0,0E0,1.3089101E0,0E0,0E0],"parents":[2147483647,0,0,2,2,3,3,4,4,5,5,10,10],"right_children":[2,-1,4,6,8,10,-1,-1,-1,-1,12,-1,-1],"split_conditions":[-1.8597284E-2,-2.3519081E-1,-1.4780949E-1,-7.328972E-2,-1.1103183E-1,-5.4685044E-1,-2.3892285E-1,2.2350553E-2,2.7018586E-1,2.592887E-1,-1.3119596E-1,-1.3942741E-1,1.6975722E-1],"split_indices":[3,0,1,0,0,1,0,0,0,0,0,0,0],"split_type":[0,0,0,0,0,0,0,0,0,0,0,0,0],"sum_hessian":[1.2304907E1,2.2814572E0,1.002345E1,6.715401E0,3.3080487E0,4.6965137E0,2.0188873E0,1.2100531E0,2.0979955E0,1.5916452E0,3.1048684E0,2.0142741E0,1.0905944E0],"tree_param":{"num_deleted":"0","num_feature":"4","num_nodes":"13","size_leaf_vector":"0"}},{"base_weights":[8.317162E-2,2.0796517E-1,-1.9591752E-1,-1.20294236E-1,3.2499406E-1,8.858025E-2,6.442746E-1,4.5297456E-1,-3.7171808E-1,1.8750334E-2,2.601087E-1,2.147618E-3,6.086907E-1,-1.5856098E-1,-1.2778259E-3,2.2581519E-1,5.6462675E-2],"categories":[],"categories_nodes":[],"categories_segments":[],"categories_sizes":[],"default_left":[1,0,0,0,0,0,0,0,0,0,0,0,0,0,0,0,0],"id":15,"left_children":[1,3,-1,-1,5,7,9,11,13,-1,-1,-1,15,-1,-1,-1,-1],"loss_changes":[1.255279E0,9.26832E-1,0E0,0E0,6.9228184E-1,1.3195728E0,4.7249258E-1,2.928669E-1,2.0415196E-1,0E0,0E0,0E0,4.9779654E-2,0E0,0E0,0E0,0E0],"parents":[2147483647,0,0,1,1,4,4,5,5,6,6,7,7,8,8,12,12],"right_children":[2,4,-1,-1,6,8,10,12,14,-1,-1,-1,16,-1,-1,-1,-1],"split_conditions":[-4.2082082E-2,-4.966521E-2,-1.9591752E-1,-1.20294236E-1,-1.4780949E-1,-4.048512E-1,-1.1103183E-1,-1.5877034E-1,-3.4025776E-1,1.8750334E-2,2.601087E-1,2.147618E-3,-5.354946E-1,-1.5856098E-1,-1.2778259E-3,2.2581519E-1,5.6462675E-2],"split_indices":[0,3,0,0,1,1,0,0,1,0,0,0,1,0,0,0,0],"split_type":[0,0,0,0,0,0,0,0,0,0,0,0,0,0,0,0,0],"sum_hessian":[1.1184427E1,1.0176929E1,1.007498E0,1.2494137E0,8.927515E0,5.863372E0,3.0641437E0,3.2814941E0,2.5818777E0,1.20295E0,1.8611934E0,1.1202339E0,2.1612604E0,1.5023648E0,1.079513E0,1.0213048E0,1.1399555E0],"tree_param":{"num_deleted":"0","num_feature":"4","num_nodes":"17","size_leaf_vector":"0"}},{"base_weights":[1.0113929E-1,-1.810727E-1,3.059271E-1,2.56331E-1,8.47531E-2,-1.4239143E-1,2.4676013E-1,-9.155262E-2,5.0516623E-1,1.3485283E-1,-1.765048E-1,-2.2420606E-3,2.8715146E-1],"categories":[],"categories_nodes":[],"categories_segments":[],"categories_sizes":[],"default_left":[1,0,0,0,0,0,0,0,0,0,0,0,0],"id":16,"left_children":[1,-1,3,-1,5,-1,7,9,11,-1,-1,-1,-1],"loss_changes":[1.833944E0,0E0,1.08235E0,0E0,8.3247435E-1,0E0,6.388649E-1,1.2810868E0,9.3325067E-1,0E0,0E0,0E0,0E0],"parents":[2147483647,0,0,2,2,4,4,6,6,7,7,8,8],"right_children":[2,-1,4,-1,6,-1,8,10,12,-1,-1,-1,-1],"split_conditions":[-1.8597284E-2,-1.810727E-1,1.6982085E-1,2.56331E-1,3.1183043E-1,-1.4239143E-1,-1.1611536E-1,-4.1037863E-1,-4.0289217E-1,1.3485283E-1,-1.765048E-1,-2.2420606E-3,2.8715146E-1],"split_indices":[3,0,3,0,3,0,0,1,1,0,0,0,0],"split_type":[0,0,0,0,0,0,0,0,0,0,0,0,0],"sum_hessian":[1.0428269E1,1.909609E0,8.518661E0,1.6251401E0,6.8935204E0,1.1147348E0,5.7787857E0,2.7820926E0,2.9966931E0,1.3772798E0,1.4048127E0,1.8649894E0,1.1317037E0],"tree_param":{"num_deleted":"0","num_feature":"4","num_nodes":"13","size_leaf_vector":"0"}},{"base_weights":[1.0797548E-1,-3.2437935E-1,4.366192E-1,8.3797105E-2,-2.5319445E-1,-1.557863E-1,2.3200068E-1,1.2246471E-1,-7.68635E-2,-1.0890504E-2,-5.9460532E-2],"categories":[],"categories_nodes":[],"categories_segments":[],"categories_sizes":[],"default_left":[1,1,0,0,0,0,0,0,0,0,0],"id":17,"left_children":[1,3,5,7,-1,9,-1,-1,-1,-1,-1],"loss_changes":[1.5748614E0,1.1162786E0,1.3486176E0,5.094763E-1,0E0,8.331381E-3,0E0,0E0,0E0,0E0,0E0],"parents":[2147483647,0,0,1,1,2,2,3,3,5,5],"right_children":[2,4,6,8,-1,10,-1,-1,-1,-1,-1],"split_conditions":[2.4356408E-1,1.0302148E-1,-1.2584959E-1,2.3610775E-1,-2.5319445E-1,-1.5877034E-1,2.3200068E-1,1.2246471E-1,-7.68635E-2,-1.0890504E-2,-5.9460532E-2],"split_indices":[3,3,0,1,0,0,0,0,0,0,0],"split_type":[0,0,0,0,0,0,0,0,0,0,0],"sum_hessian":[9.086735E0,3.9297876E0,5.156947E0,2.670606E0,1.2591817E0,2.0636244E0,3.0933228E0,1.2639793E0,1.4066265E0,1.0268476E0,1.0367769E0],"tree_param":{"num_deleted":"0","num_feature":"4","num_nodes":"11","size_leaf_vector":"0"}},{"base_weights":[1.328342E-1,-2.941576E-1,2.6532063E-1,6.197395E-2,-2.0610145E-1,6.664924E-2,2.3670374E-1,3.5376778E-1,-2.213457E-1,2.3268213E-2,1.5799555E-1,-1.5834044E-1,3.633092E-2],"categories":[],"categories_nodes":[],"categories_segments":[],"categories_sizes":[],"default_left":[1,0,0,0,0,0,0,0,0,0,0,0,0],"id":18,"left_children":[1,3,5,-1,-1,7,-1,9,11,-1,-1,-1,-1],"loss_changes":[7.2939396E-1,7.715532E-1,9.163751E-1,0E0,0E0,7.269157E-1,0E0,1.6509897E-1,5.394422E-1,0E0,0E0,0E0,0E0],"parents":[2147483647,0,0,1,1,2,2,5,5,7,7,8,8],"right_children":[2,4,6,-1,-1,8,-1,10,12,-1,-1,-1,-1],"split_conditions":[-1.8597284E-2,-1.40852E-1,1.6284706E-1,6.197395E-2,-2.0610145E-1,1.3262061E-2,2.3670374E-1,3.1183043E-1,6.236881E-1,2.3268213E-2,1.5799555E-1,-1.5834044E-1,3.633092E-2],"split_indices":[3,3,2,0,0,2,0,3,3,0,0,0,0],"split_type":[0,0,0,0,0,0,0,0,0,0,0,0,0],"sum_hessian":[1.051389E1,2.2007587E0,8.313131E0,1.1759707E0,1.0247881E0,6.8440084E0,1.4691228E0,3.312854E0,3.5311546E0,1.8330007E0,1.4798535E0,1.5778698E0,1.9532847E0],"tree_param":{"num_deleted":"0","num_feature":"4","num_nodes":"13","size_leaf_vector":"0"}},{"base_weights":[2.965889E-3,1.131881E-1,-1.3388689E-1,-2.0951329E-1,2.8868634E-1,1.1300948E-1,-2.0100658E-1,-1.323953E-1,2.9384196E-1,2.2203372E-1,-2.2015874E-1,-1.3298291E-2,1.4558484E-1],"categories":[],"categories_nodes":[],"categories_segments":[],"categories_sizes":[],"default_left":[1,0,0,0,0,0,0,0,0,0,0,0,0],"id":19,"left_children":[1,3,-1,5,7,-1,-1,9,-1,11,-1,-1,-1],"loss_changes":[5.974587E-1,6.079612E-1,0E0,1.3281177E0,2.0733836E0,0E0,0E0,1.2357534E0,0E0,2.9737854E-1,0E0,0E0,0E0],"parents":[2147483647,0,0,1,1,3,3,4,4,7,7,9,9],"right_children":[2,4,-1,6,8,-1,-1,10,-1,12,-1,-1,-1],"split_conditions":[2.3610775E-1,-1.603269E-2,-1.3388689E-1,-2.8571775E-2,-3.4075528E-1,1.1300948E-1,-2.0100658E-1,-4.048512E-1,2.9384196E-1,-5.3827167E-1,-2.2015874E-1,-1.3298291E-2,1.4558484E-1],"split_indices":[1,2,0,2,1,0,0,1,0,1,0,0,0],"split_type":[0,0,0,0,0,0,0,0,0,0,0,0,0],"sum_hessian":[1.0045372E1,8.667023E0,1.3783493E0,2.9848118E0,5.682211E0,1.393249E0,1.5915627E0,4.0324802E0,1.6497304E0,2.9342496E0,1.0982308E0,1.8718662E0,1.0623834E0],"tree_param":{"num_deleted":"0","num_feature":"4","num_nodes":"13","size_leaf_vector":"0"}},{"base_weights":[8.039625E-1,1.1428887E0,-2.5373787E-1,5.335129E-1,6.1688185E-1,7.640189E-1,-3.5244856E-2,3.6846425E-2,3.1267366E-1],"categories":[],"categories_nodes":[],"categories_segments":[],"categories_sizes":[],"default_left":[0,0,0,0,0,0,0,0,0],"id":20,"left_children":[1,3,-1,5,-1,7,-1,-1,-1],"loss_changes":[7.985155E0,4.9354696E0,0E0,1.267926E0,0E0,9.301746E-1,0E0,0E0,0E0],"parents":[2147483647,0,0,1,1,3,3,5,5],"right_children":[2,4,-1,6,-1,8,-1,-1,-1],"split_conditions":[4.85144E-2,-1.4616868E-2,-2.5373787E-1,2.1840215E-1,6.1688185E-1,-4.1811845E-1,-3.5244856E-2,3.6846425E-2,3.1267366E-1],"split_indices":[2,2,0,3,0,3,0,0,0],"split_type":[0,0,0,0,0,0,0,0,0],"sum_hessian":[1.1552211E1,9.838271E0,1.7139392E0,6.851388E0,2.9868836E0,4.9315853E0,1.9198024E0,1.9285403E0,3.003045E0],"tree_param":{"num_deleted":"0","num_feature":"4","num_nodes":"9","size_leaf_vector":"0"}},{"base_weights":[5.55966E-1,7.566533E-1,-1.5066564E-1,1.0191426E0,-9.201622E-2,5.7729757E-1,4.728075E-1,8.70168E-1,2.301477E-2,2.7265748E-2,3.5249302E-1,-1.4237021E-1,1.4786476E-1],"categories":[],"categories_nodes":[],"categories_segments":[],"categories_sizes":[],"default_left":[1,1,0,0,0,0,0,0,0,0,0,0,0],"id":21,"left_children":[1,3,-1,5,-1,7,-1,9,11,-1,-1,-1,-1],"loss_changes":[3.0093746E0,3.328958E0,0E0,1.2796745E0,0E0,1.0415869E0,0E0,9.0312696E-1,1.0026386E0,0E0,0E0,0E0,0E0],"parents":[2147483647,0,0,1,1,3,3,5,5,7,7,8,8],"right_children":[2,4,-1,6,-1,8,-1,10,12,-1,-1,-1,-1],"split_conditions":[4.85144E-2,5.5711858E-2,-1.5066564E-1,-8.64117E-3,-9.201622E-2,-4.6590965E-2,4.728075E-1,-3.5613203E-1,-3.719397E-2,2.7265748E-2,3.5249302E-1,-1.4237021E-1,1.4786476E-1],"split_indices":[2,0,0,2,0,2,0,3,2,0,0,0,0],"split_type":[0,0,0,0,0,0,0,0,0,0,0,0,0],"sum_hessian":[1.138141E1,9.806529E0,1.5748804E0,7.8984303E0,1.9080987E0,5.539726E0,2.3587048E0,3.2517018E0,2.288024E0,1.2792672E0,1.9724346E0,1.106382E0,1.181642E0],"tree_param":{"num_deleted":"0","num_feature":"4","num_nodes":"13","size_leaf_vector":"0"}},{"base_weights":[1.9963849E-1,-5.3665936E-1,5.508101E-1,3.2886432E-4,-7.5110894E-1,2.8663546E-1,4.0110835E-1,-2.72477E-1,-6.0197927E-2,-1.043903E-1,4.9165463E-1,3.6518894E-2,3.6766344E-1,4.322008E-1,-2.3676087E-1,-7.050998E-2,2.724154E-1],"categories":[],"categories_nodes":[],"categories_segments":[],"categories_sizes":[],"default_left":[0,0,1,0,0,0,0,0,0,0,1,1,0,1,0,0,0],"id":22,"left_children":[1,3,5,-1,7,9,-1,-1,-1,-1,11,13,-1,15,-1,-1,-1],"loss_changes":[3.7711322E0,5.5980027E-1,1.609508E0,0E0,1.1762428E-1,1.2710323E0,0E0,0E0,0E0,0E0,2.2280326E0,2.0500178E0,0E0,1.5412815E0,0E0,0E0,0E0],"parents":[2147483647,0,0,1,1,2,2,4,4,5,5,10,10,11,11,13,13],"right_children":[2,4,6,-1,8,10,-1,-1,-1,-1,12,14,-1,16,-1,-1,-1],"split_conditions":[-3.1755324E-2,-1.4379565E-1,3.4041288E-3,3.2886432E-4,6.2074935E-1,-9.636665E-3,4.0110835E-1,-2.72477E-1,-6.0197927E-2,-1.043903E-1,-4.0546197E-2,-1.0833758E-1,3.6766344E-1,-1.384226E-1,-2.3676087E-1,-7.050998E-2,2.724154E-1],"split_indices":[0,2,2,0,3,0,0,0,0,0,2,2,0,2,0,0,0],"split_type":[0,0,0,0,0,0,0,0,0,0,0,0,0,0,0,0,0],"sum_hessian":[1.244153E1,3.8471193E0,8.594411E0,1.38043E0,2.4666893E0,7.4542923E0,1.1401188E0,1.4132054E0,1.0534838E0,1.6499374E0,5.8043547E0,4.230495E0,1.5738598E0,3.1821852E0,1.0483096E0,1.5353736E0,1.6468116E0],"tree_param":{"num_deleted":"0","num_feature":"4","num_nodes":"17","size_leaf_vector":"0"}},{"base_weights":[3.0099025E-1,-3.0658925E-1,4.9519283E-1,1.19527854E-1,-2.3053741E-1,6.5845484E-1,-1.2201073E-1,2.451114E-1,8.559768E-1,8.301115E-1,-2.2745465E-1,3.2933456E-1,3.9159688E-1,5.2501645E-2,3.4082785E-1,2.3146765E-1,-1.3106224E-1],"categories":[],"categories_nodes":[],"categories_segments":[],"categories_sizes":[],"default_left":[0,0,0,0,0,0,0,0,0,0,0,0,0,0,0,0,0],"id":23,"left_children":[1,3,5,-1,-1,7,-1,9,11,13,-1,15,-1,-1,-1,-1,-1],"loss_changes":[1.8637377E0,1.6515859E0,1.9429722E0,0E0,0E0,6.078448E-1,0E0,3.3524375E0,1.0787935E0,4.8432207E-1,0E0,1.7847962E0,0E0,0E0,0E0,0E0,0E0],"parents":[2147483647,0,0,1,1,2,2,5,5,7,7,8,8,9,9,11,11],"right_children":[2,4,6,-1,-1,8,-1,10,12,14,-1,16,-1,-1,-1,-1,-1],"split_conditions":[-6.314238E-2,-4.2467827E-1,8.055622E-2,1.19527854E-1,-2.3053741E-1,-9.636665E-3,-1.2201073E-1,-2.5292456E-2,-3.719397E-2,-3.1755324E-2,-2.2745465E-1,-1.0833758E-1,3.9159688E-1,5.2501645E-2,3.4082785E-1,2.3146765E-1,-1.3106224E-1],"split_indices":[0,1,0,0,0,0,0,0,2,0,0,2,0,0,0,0,0],"split_type":[0,0,0,0,0,0,0,0,0,0,0,0,0,0,0,0,0],"sum_hessian":[1.350857E1,3.1317887E0,1.03767805E1,1.2939742E0,1.8378146E0,9.014828E0,1.3619528E0,3.6395252E0,5.375303E0,2.4080522E0,1.231473E0,3.272633E0,2.1026697E0,1.2671125E0,1.1409398E0,2.0705905E0,1.2020426E0],"tree_param":{"num_deleted":"0","num_feature":"4","num_nodes":"17","size_leaf_vector":"0"}},{"base_weights":[1.6395168E-1,-5.620297E-1,3.861087E-1,-4.2428847E-2,-2.3824255E-1,-9.103171E-2,6.931594E-1,-4.2319494E-1,1.5919408E-1,2.7354553E-1,3.0140695E-1,4.0433392E-2,-2.0747644E-1,-5.81583E-2,1.8472497E-1],"categories":[],"categories_nodes":[],"categories_segments":[],"categories_sizes":[],"default_left":[1,0,0,0,0,0,0,0,0,0,0,0,0,0,0],"id":24,"left_children":[1,3,5,-1,-1,7,9,11,-1,-1,13,-1,-1,-1,-1],"loss_changes":[2.3348906E0,2.2782218E-1,1.623027E0,0E0,0E0,1.2679968E0,2.9006195E-1,6.697204E-1,0E0,0E0,7.1969485E-1,0E0,0E0,0E0,0E0],"parents":[2147483647,0,0,1,1,2,2,5,5,6,6,7,7,10,10],"right_children":[2,4,6,-1,-1,8,10,12,-1,-1,14,-1,-1,-1,-1],"split_conditions":[-6.314238E-2,7.1513855E-1,-6.918315E-2,-4.2428847E-2,-2.3824255E-1,2.1437836E-1,-8.72603E-4,-3.18388E-1,1.5919408E-1,2.7354553E-1,2.7612934E-2,4.0433392E-2,-2.0747644E-1,-5.81583E-2,1.8472497E-1],"split_indices":[0,3,3,0,0,1,0,1,0,0,0,0,0,0,0],"split_type":[0,0,0,0,0,0,0,0,0,0,0,0,0,0,0],"sum_hessian":[1.2131581E1,2.484071E0,9.647511E0,1.4556557E0,1.0284152E0,4.0529585E0,5.594552E0,2.849656E0,1.2033023E0,2.738503E0,2.8560488E0,1.087222E0,1.7624341E0,1.2577162E0,1.5983328E0],"tree_param":{"num_deleted":"0","num_feature":"4","num_nodes":"15","size_leaf_vector":"0"}},{"base_weights":[1.9549106E-1,4.4955882E-1,-3.1463656E-1,5.7322085E-1,-7.460068E-2,1.23868845E-1,-1.8593019E-1,8.9314416E-2,7.6081747E-1,-1.3795884E-1,1.9370615E-1,3.9235666E-1,1.6012518E-1,-9.45602E-2,1.6160254E-1],"categories":[],"categories_nodes":[],"categories_segments":[],"categories_sizes":[],"default_left":[0,0,0,0,0,0,0,0,0,0,0,0,0,0,0],"id":25,"left_children":[1,3,5,7,-1,-1,-1,9,11,-1,-1,-1,13,-1,-1],"loss_changes":[1.8232806E0,9.260247E-1,1.3442117E0,6.5930057E-1,0E0,0E0,0E0,1.326954E0,1.6439366E0,0E0,0E0,0E0,8.5853523E-1,0E0,0E0],"parents":[2147483647,0,0,1,1,2,2,3,3,7,7,8,8,12,12],"right_children":[2,4,6,8,-1,-1,-1,10,12,-1,-1,-1,14,-1,-1],"split_conditions":[2.3107392E-1,8.055622E-2,-5.380873E-1,-3.4792674E-1,-7.460068E-2,1.23868845E-1,-1.8593019E-1,2.1437836E-1,-1.9289268E-2,-1.3795884E-1,1.9370615E-1,3.9235666E-1,1.0760279E-2,-9.45602E-2,1.6160254E-1],"split_indices":[3,0,1,3,0,0,0,1,0,0,0,0,0,0,0],"split_type":[0,0,0,0,0,0,0,0,0,0,0,0,0,0,0],"sum_hessian":[1.1976407E1,8.073936E0,3.9024708E0,7.011224E0,1.0627126E0,1.0487429E0,2.853728E0,2.3710878E0,4.640136E0,1.2805561E0,1.0905317E0,1.8123862E0,2.8277497E0,1.3278205E0,1.4999292E0],"tree_param":{"num_deleted":"0","num_feature":"4","num_nodes":"15","size_leaf_vector":"0"}},{"base_weights":[2.7572948E-1,-1.3682552E-1,7.027036E-1,1.6934247E-1,-5.27896E-1,2.3849297E-1,4.359527E-2,-2.5938144E-1,-6.780292E-2,9.2134275E-2,-1.3657948E-1],"categories":[],"categories_nodes":[],"categories_segments":[],"categories_sizes":[],"default_left":[1,0,0,0,1,0,0,0,0,0,0],"id":26,"left_children":[1,3,5,-1,7,-1,-1,-1,9,-1,-1],"loss_changes":[2.3033946E0,2.275346E0,2.0955515E-1,0E0,7.3849916E-1,0E0,0E0,0E0,6.133047E-1,0E0,0E0],"parents":[2147483647,0,0,1,1,2,2,4,4,8,8],"right_children":[2,4,6,-1,8,-1,-1,-1,10,-1,-1],"split_conditions":[-9.636665E-3,-4.2467827E-1,7.615911E-2,1.6934247E-1,-3.0957246E-1,2.3849297E-1,4.359527E-2,-2.5938144E-1,-2.1903485E-2,9.2134275E-2,-1.3657948E-1],"split_indices":[0,1,0,0,1,0,0,0,1,0,0],"split_type":[0,0,0,0,0,0,0,0,0,0,0],"sum_hessian":[1.1530473E1,6.2098646E0,5.320608E0,2.0644E0,4.1454644E0,4.199191E0,1.121417E0,1.8860247E0,2.25944E0,1.2537001E0,1.0057398E0],"tree_param":{"num_deleted":"0","num_feature":"4","num_nodes":"11","size_leaf_vector":"0"}},{"base_weights":[7.637455E-2,3.3750093E-1,-3.6346322E-1,5.746593E-1,-1.6509019E-1,-5.6595486E-1,5.1160146E-2,2.2971772E-1,3.3220676E-1,-2.5295395E-1,-5.8024554E-3,-5.8443148E-2,5.9210306E-1,2.1020085E-1,5.8546852E-2],"categories":[],"categories_nodes":[],"categories_segments":[],"categories_sizes":[],"default_left":[1,1,0,0,0,0,0,0,1,0,0,0,0,0,0],"id":27,"left_children":[1,3,5,7,-1,9,-1,-1,11,-1,-1,-1,13,-1,-1],"loss_changes":[1.4789807E0,1.9855626E0,6.242592E-1,5.813408E-2,0E0,5.550245E-1,0E0,0E0,7.645256E-1,0E0,0E0,0E0,1.0721803E-2,0E0,0E0],"parents":[2147483647,0,0,1,1,2,2,3,3,5,5,8,8,12,12],"right_children":[2,4,6,8,-1,10,-1,-1,12,-1,-1,-1,14,-1,-1],"split_conditions":[-1.576877E-1,7.1513855E-1,-2.7243552E-1,-4.890062E-2,-1.6509019E-1,4.0954572E-1,5.1160146E-2,2.2971772E-1,-9.636665E-3,-2.5295395E-1,-5.8024554E-3,-5.8443148E-2,3.972426E-2,2.1020085E-1,5.8546852E-2],"split_indices":[1,3,3,0,0,1,0,0,0,0,0,0,0,0,0],"split_type":[0,0,0,0,0,0,0,0,0,0,0,0,0,0,0],"sum_hessian":[1.0809082E1,6.9284277E0,3.8806543E0,5.74617E0,1.1822577E0,2.7703075E0,1.1103467E0,2.0066032E0,3.7395668E0,1.4781064E0,1.2922013E0,1.3177884E0,2.4217784E0,1.300846E0,1.1209325E0],"tree_param":{"num_deleted":"0","num_feature":"4","num_nodes":"15","size_leaf_vector":"0"}},{"base_weights":[8.3980896E-2,3.899972E-1,-2.9593983E-1,-8.728074E-3,5.0160974E-1,-2.2573735E-1,-5.5667404E-2,-2.5379714E-2,7.1166503E-1,-1.5908155E-1,3.7259603E-1,2.657327E-1,5.4671664E-2,-8.866767E-4,1.6727094E-1],"categories":[],"categories_nodes":[],"categories_segments":[],"categories_sizes":[],"default_left":[1,0,0,0,0,0,0,0,1,0,0,0,0,0,0],"id":28,"left_children":[1,3,5,-1,7,-1,9,-1,11,-1,13,-1,-1,-1,-1],"loss_changes":[1.6273444E0,3.7169182E-1,6.568564E-1,0E0,8.093072E-1,0E0,1.2653815E0,0E0,2.6120925E-1,0E0,2.3428604E-1,0E0,0E0,0E0,0E0],"parents":[2147483647,0,0,1,1,2,2,4,4,6,6,8,8,10,10],"right_children":[2,4,6,-1,8,-1,10,-1,12,-1,14,-1,-1,-1,-1],"split_conditions":[3.4459006E-2,-5.751767E-1,-1.373533E-1,-8.728074E-3,-3.1317253E-2,-2.2573735E-1,-3.8515672E-2,-2.5379714E-2,2.0480627E-2,-1.5908155E-1,-1.4616868E-2,2.657327E-1,5.4671664E-2,-8.866767E-4,1.6727094E-1],"split_indices":[3,3,2,0,0,0,0,0,0,0,2,0,0,0,0],"split_type":[0,0,0,0,0,0,0,0,0,0,0,0,0,0,0],"sum_hessian":[1.2004502E1,6.6342573E0,5.370245E0,1.550744E0,5.0835133E0,1.116744E0,4.253501E0,1.4985923E0,3.584921E0,1.9046093E0,2.3488917E0,2.1912167E0,1.3937042E0,1.0998636E0,1.2490281E0],"tree_param":{"num_deleted":"0","num_feature":"4","num_nodes":"15","size_leaf_vector":"0"}},{"base_weights":[1.9162622E-1,2.4448837E-1,3.2304935E-2,2.6652247E-1,-3.4322128E-1,4.875139E-2,2.2678798E-1,-2.3720305E-1,1.3590938E-1,2.5922468E-1,-1.5213878E-1,8.774841E-2,-2.5457194E-2,1.7855307E-1,2.1019036E-5,-1.981326E-1,1.4931898E-1],"categories":[],"categories_nodes":[],"categories_segments":[],"categories_sizes":[],"default_left":[1,0,0,0,0,0,0,0,0,0,0,0,0,0,0,0,0],"id":29,"left_children":[1,-1,3,5,7,9,-1,-1,11,13,-1,-1,-1,-1,15,-1,-1],"loss_changes":[1.2074924E0,0E0,1.0533564E0,7.410218E-1,1.1017823E0,8.4746057E-1,0E0,0E0,1.31742E-1,4.4416183E-1,0E0,0E0,0E0,0E0,1.6039189E0,0E0,0E0],"parents":[2147483647,0,0,2,2,3,3,4,4,5,5,8,8,9,9,14,14],"right_children":[2,-1,4,6,8,10,-1,-1,12,14,-1,-1,-1,-1,16,-1,-1],"split_conditions":[-5.380873E-1,2.4448837E-1,3.4459006E-2,-6.918315E-2,-4.1240343E-1,-2.1282874E-1,2.2678798E-1,-2.3720305E-1,-3.374644E-1,-2.2426774E-1,-1.5213878E-1,8.774841E-2,-2.5457194E-2,1.7855307E-1,-4.8697505E-2,-1.981326E-1,1.4931898E-1],"split_indices":[1,0,3,3,1,3,0,0,1,1,0,0,0,0,2,0,0],"split_type":[0,0,0,0,0,0,0,0,0,0,0,0,0,0,0,0,0],"sum_hessian":[1.1423855E1,1.4877838E0,9.936071E0,6.298152E0,3.6379192E0,5.1197634E0,1.1783886E0,1.5449102E0,2.0930088E0,4.1007595E0,1.0190036E0,1.0344151E0,1.0585938E0,1.2214594E0,2.8793004E0,1.0968323E0,1.7824681E0],"tree_param":{"num_deleted":"0","num_feature":"4","num_nodes":"17","size_leaf_vector":"0"}},{"base_weights":[-4.1262504E-1,2.294382E-1,-5.795819E-1,-3.4700373E-1,-4.176307E-1,-7.229039E-1,2.4094239E-1,-3.0573884E-1,-2.1118158E-1,2.0769162E-1,-2.2470246E-1,1.1326277E-1,-2.8619346E-1,-2.666924E-1,1.7128125E-1],"categories":[],"categories_nodes":[],"categories_segments":[],"categories_sizes":[],"default_left":[0,0,1,0,0,0,0,0,0,0,0,0,0,0,0],"id":30,"left_children":[1,-1,3,5,-1,7,9,-1,11,-1,13,-1,-1,-1,-1],"loss_changes":[3.4927163E0,0E0,2.1918807E0,2.9007664E0,0E0,9.634361E-1,1.3244398E0,0E0,2.1584425E0,0E0,2.3533456E0,0E0,0E0,0E0,0E0],"parents":[2147483647,0,0,2,2,3,3,5,5,6,6,8,8,10,10],"right_children":[2,-1,4,6,-1,8,10,-1,12,-1,14,-1,-1,-1,-1],"split_conditions":[-8.425593E-2,2.294382E-1,5.471818E-3,-3.164533E-2,-4.176307E-1,2.2946009E-1,-2.2954723E-2,-3.0573884E-1,3.764643E-2,2.0769162E-1,-1.52140735E-2,1.1326277E-1,-2.8619346E-1,-2.666924E-1,1.7128125E-1],"split_indices":[0,0,0,0,0,3,0,0,2,0,0,0,0,0,0],"split_type":[0,0,0,0,0,0,0,0,0,0,0,0,0,0,0],"sum_hessian":[1.4512683E1,1.3576226E0,1.315506E1,1.1336996E1,1.8180642E0,6.775546E0,4.56145E0,3.6633444E0,3.112202E0,2.0690718E0,2.4923782E0,2.0104733E0,1.1017284E0,1.2943935E0,1.1979846E0],"tree_param":{"num_deleted":"0","num_feature":"4","num_nodes":"15","size_leaf_vector":"0"}},{"base_weights":[-3.6330423E-1,-1.0878183E-1,-9.310498E-1,2.4472272E-1,-8.9636725E-1,-3.2932568E-1,-6.566085E-2,-1.7542629E-1,3.0942327E-1,-2.3658855E-2,-4.1897884E-1,-5.172849E-1,1.4334932E-1,-2.1218939E-1,-2.067193E-1,3.5487365E-2,-1.3087206E-1],"categories":[],"categories_nodes":[],"categories_segments":[],"categories_sizes":[],"default_left":[1,1,0,0,0,0,0,0,0,0,0,0,0,0,0,0,0],"id":31,"left_children":[1,3,5,7,9,-1,-1,11,-1,-1,-1,13,-1,15,-1,-1,-1],"loss_changes":[1.9452932E0,3.2571905E0,2.644949E-1,2.9297457E0,1.3598707E0,0E0,0E0,1.6486977E0,0E0,0E0,0E0,9.487045E-2,0E0,2.81287E-1,0E0,0E0,0E0],"parents":[2147483647,0,0,1,1,2,2,3,3,4,4,7,7,11,11,13,13],"right_children":[2,4,6,8,10,-1,-1,12,-1,-1,-1,14,-1,16,-1,-1,-1],"split_conditions":[-2.2954723E-2,6.0357815E-1,-1.8346928E-2,-2.9849743E-2,-8.425593E-2,-3.2932568E-1,-6.566085E-2,2.2946009E-1,3.0942327E-1,-2.3658855E-2,-4.1897884E-1,-5.0895005E-3,1.4334932E-1,-4.3489136E-2,-2.067193E-1,3.5487365E-2,-1.3087206E-1],"split_indices":[0,3,2,0,0,0,0,3,0,0,0,3,0,0,0,0,0],"split_type":[0,0,0,0,0,0,0,0,0,0,0,0,0,0,0,0,0],"sum_hessian":[1.3162755E1,9.911153E0,3.2516022E0,7.3164625E0,2.5946903E0,2.1961465E0,1.0554556E0,5.275804E0,2.0406587E0,1.4244391E0,1.1702511E0,3.6000125E0,1.6757914E0,2.1019697E0,1.4980428E0,1.0399909E0,1.0619789E0],"tree_param":{"num_deleted":"0","num_feature":"4","num_nodes":"17","size_leaf_vector":"0"}},{"base_weights":[-9.635343E-2,-3.8231725E-1,5.3562444E-1,-7.835682E-1,2.3332765E-2,2.9104158E-1,1.4218651E-1,-2.502553E-1,-3.332676E-1,-7.782821E-1,6.3377255E-1,-1.6894713E-1,2.0082273E-1,-1.2086165E-1,1.0788903E-2,-7.2583586E-2,-2.8358063E-1,1.382984E-2,2.913957E-1],"categories":[],"categories_nodes":[],"categories_segments":[],"categories_sizes":[],"default_left":[0,0,1,0,0,0,0,0,0,0,0,0,0,0,0,0,0,0,0],"id":32,"left_children":[1,3,5,7,9,-1,11,13,-1,15,17,-1,-1,-1,-1,-1,-1,-1,-1],"loss_changes":[2.7999663E0,1.7224591E0,6.9803286E-1,6.458771E-1,3.51616E0,0E0,1.7670639E0,1.5879753E-1,0E0,5.067551E-2,7.6022065E-1,0E0,0E0,0E0,0E0,0E0,0E0,0E0,0E0],"parents":[2147483647,0,0,1,1,2,2,3,3,4,4,6,6,7,7,9,9,10,10],"right_children":[2,4,6,8,10,-1,12,14,-1,16,18,-1,-1,-1,-1,-1,-1,-1,-1],"split_conditions":[5.217548E-1,1.2312455E-3,6.0357815E-1,-5.0895005E-3,-5.6531318E-2,2.9104158E-1,8.056978E-1,-1.8193312E-2,-3.332676E-1,1.4066925E-2,4.9346536E-3,-1.6894713E-1,2.0082273E-1,-1.2086165E-1,1.0788903E-2,-7.2583586E-2,-2.8358063E-1,1.382984E-2,2.913957E-1],"split_indices":[3,2,3,3,0,0,3,2,0,3,3,0,0,0,0,0,0,0,0],"split_type":[0,0,0,0,0,0,0,0,0,0,0,0,0,0,0,0,0,0,0],"sum_hessian":[1.3360046E1,9.470007E0,3.890039E0,4.29246E0,5.177547E0,1.1519849E0,2.738054E0,2.303647E0,1.9888132E0,2.119421E0,3.058126E0,1.1420316E0,1.5960226E0,1.2366649E0,1.0669822E0,1.0846317E0,1.0347893E0,1.5303454E0,1.5277805E0],"tree_param":{"num_deleted":"0","num_feature":"4","num_nodes":"19","size_leaf_vector":"0"}},{"base_weights":[-4.0573803E-1,-7.349957E-1,-1.5323792E-1,4.7123344E-3,-1.1326953E0,2.5766695E-1,-7.423226E-1,-9.791664E-2,9.35304E-2,-1.03396334E-1,-4.6138206E-1,-1.0199866E-1,5.323471E-1,5.4672554E-2,-3.230465E-1,1.2772419E-1,-1.9867745E-1,2.0310296E-1,3.112723E-2],"categories":[],"categories_nodes":[],"categories_segments":[],"categories_sizes":[],"default_left":[1,0,0,0,0,0,0,0,0,0,0,0,0,0,0,0,0,0,0],"id":33,"left_children":[1,3,5,7,9,11,13,-1,-1,-1,-1,15,17,-1,-1,-1,-1,-1,-1],"loss_changes":[1.1605747E0,1.8832471E0,2.5951262E0,4.299245E-1,7.9703903E-1,7.055955E-1,1.5379527E0,0E0,0E0,0E0,0E0,1.3741364E0,1.7147672E-1,0E0,0E0,0E0,0E0,0E0,0E0],"parents":[2147483647,0,0,1,1,2,2,3,3,4,4,5,5,6,6,11,11,12,12],"right_children":[2,4,6,8,10,12,14,-1,-1,-1,-1,16,18,-1,-1,-1,-1,-1,-1],"split_conditions":[-4.995265E-2,-7.658984E-2,-1.8696543E-2,-1.1751736E-1,3.3818852E-2,-3.630602E-2,-3.429686E-1,-9.791664E-2,9.35304E-2,-1.03396334E-1,-4.6138206E-1,-3.874324E-2,4.0225657E-3,5.4672554E-2,-3.230465E-1,1.2772419E-1,-1.9867745E-1,2.0310296E-1,3.112723E-2],"split_indices":[0,0,0,0,2,0,1,0,0,0,0,0,2,0,0,0,0,0,0],"split_type":[0,0,0,0,0,0,0,0,0,0,0,0,0,0,0,0,0,0,0],"sum_hessian":[1.4314414E1,5.383504E0,8.93091E0,2.2278771E0,3.1556268E0,5.592539E0,3.3383713E0,1.0416707E0,1.1862065E0,1.7000962E0,1.4555304E0,2.6938636E0,2.8986752E0,1.0078437E0,2.3305275E0,1.510815E0,1.1830486E0,1.7338299E0,1.1648452E0],"tree_param":{"num_deleted":"0","num_feature":"4","num_nodes":"19","size_leaf_vector":"0"}},{"base_weights":[-4.9638372E-2,8.830844E-2,-2.528456E-1,-6.2727123E-1,2.9075673E-1,-4.5089718E-2,-2.4797837E-1,8.6307186E-1,-1.5408036E-1,9.825633E-2,3.3245566E-1,-6.5968233E-1,2.9451373E-1,-4.1786492E-2,-2.4960451E-1,2.2840697E-1,-1.5473045E-1],"categories":[],"categories_nodes":[],"categories_segments":[],"categories_sizes":[],"default_left":[1,0,0,0,0,0,0,0,0,0,0,0,0,0,0,0,0],"id":34,"left_children":[1,3,-1,5,7,-1,-1,9,11,-1,-1,13,15,-1,-1,-1,-1],"loss_changes":[1.639806E0,2.0790243E0,0E0,1.8036199E-1,2.9050095E0,0E0,0E0,2.820239E-1,1.7762836E0,0E0,0E0,2.0586622E-1,2.0522492E0,0E0,0E0,0E0,0E0],"parents":[2147483647,0,0,1,1,3,3,4,4,7,7,8,8,11,11,12,12],"right_children":[2,4,-1,6,8,-1,-1,10,12,-1,-1,14,16,-1,-1,-1,-1],"split_conditions":[5.471818E-3,-3.9561662E-1,-2.528456E-1,-5.809612E-1,-1.5183565E-1,-4.5089718E-2,-2.4797837E-1,5.217548E-1,-3.630602E-2,9.825633E-2,3.3245566E-1,-6.2198125E-2,-2.2954723E-2,-4.1786492E-2,-2.4960451E-1,2.2840697E-1,-1.5473045E-1],"split_indices":[0,1,0,1,1,0,0,3,0,0,0,0,0,0,0,0,0],"split_type":[0,0,0,0,0,0,0,0,0,0,0,0,0,0,0,0,0],"sum_hessian":[1.3306576E1,1.2092211E1,1.2143648E0,2.203881E0,9.8883295E0,1.1665127E0,1.0373684E0,3.9133387E0,5.9749913E0,1.9622356E0,1.9511031E0,2.5877886E0,3.3872027E0,1.0936224E0,1.494166E0,2.1873467E0,1.199856E0],"tree_param":{"num_deleted":"0","num_feature":"4","num_nodes":"17","size_leaf_vector":"0"}},{"base_weights":[-5.1814936E-2,-5.780965E-1,1.6298488E-1,-4.8965696E-2,-2.4304993E-1,-1.4496909E-1,3.6089012E-1,8.386301E-2,2.6753193E-1,1.75881E-1,-1.5421179E-1,1.4229399E-1,-1.5716946E-1,-4.190765E-2,1.0404094E-1],"categories":[],"categories_nodes":[],"categories_segments":[],"categories_sizes":[],"default_left":[1,0,0,0,0,0,0,0,0,0,0,0,0,0,0],"id":35,"left_children":[1,3,5,-1,-1,-1,7,9,-1,-1,11,13,-1,-1,-1],"loss_changes":[1.6310601E0,2.6832783E-1,1.5088603E0,0E0,0E0,0E0,1.1842142E0,8.9527315E-1,0E0,0E0,6.617839E-1,2.6524016E-1,0E0,0E0,0E0],"parents":[2147483647,0,0,1,1,2,2,6,6,7,7,10,10,11,11],"right_children":[2,4,6,-1,-1,-1,8,10,-1,-1,12,14,-1,-1,-1],"split_conditions":[-2.7179003E-1,-3.088406E-1,-3.9561662E-1,-4.8965696E-2,-2.4304993E-1,-1.4496909E-1,5.217548E-1,-5.0895005E-3,2.6753193E-1,1.75881E-1,-1.5183565E-1,-1.8656504E-1,-1.5716946E-1,-4.190765E-2,1.0404094E-1],"split_indices":[3,3,1,0,0,0,3,3,0,0,1,1,0,0,0],"split_type":[0,0,0,0,0,0,0,0,0,0,0,0,0,0,0],"sum_hessian":[1.259491E1,3.1603646E0,9.4345455E0,1.7446771E0,1.4156876E0,1.8739282E0,7.560617E0,5.729039E0,1.8315775E0,1.371735E0,4.3573046E0,2.7593067E0,1.5979978E0,1.2931685E0,1.4661381E0],"tree_param":{"num_deleted":"0","num_feature":"4","num_nodes":"15","size_leaf_vector":"0"}},{"base_weights":[-1.9580118E-1,-6.167241E-1,-6.253955E-2,-4.7024656E-2,-2.415051E-1,2.2734208E-1,-2.4427551E-1,-5.548417E-2,-2.4845679E-1,-5.1245034E-1,2.3594265E-1,-2.6242813E-2,-2.3243946E-1,-2.3137018E-2,4.210939E-1,4.501385E-2,1.4893262E-1],"categories":[],"categories_nodes":[],"categories_segments":[],"categories_sizes":[],"default_left":[0,0,0,0,0,0,1,0,0,0,1,0,0,0,0,0,0],"id":36,"left_children":[1,3,5,-1,-1,-1,7,9,-1,11,13,-1,-1,-1,15,-1,-1],"loss_changes":[7.337557E-1,1.507963E-1,1.9101425E0,0E0,0E0,0E0,1.0816119E0,1.2929832E0,0E0,3.494768E-1,3.836669E-1,0E0,0E0,0E0,6.4249635E-3,0E0,0E0],"parents":[2147483647,0,0,1,1,2,2,6,6,7,7,9,9,10,10,14,14],"right_children":[2,4,6,-1,-1,-1,8,10,-1,12,14,-1,-1,-1,16,-1,-1],"split_conditions":[-3.9561662E-1,-5.7177126E-1,-3.7681726E-1,-4.7024656E-2,-2.415051E-1,2.2734208E-1,-3.1558375E-3,-5.6531318E-2,-2.4845679E-1,-6.769825E-2,-1.9207254E-2,-2.6242813E-2,-2.3243946E-1,-2.3137018E-2,-1.8171705E-1,4.501385E-2,1.4893262E-1],"split_indices":[1,1,1,0,0,0,0,0,0,0,3,0,0,0,1,0,0],"split_type":[0,0,0,0,0,0,0,0,0,0,0,0,0,0,0,0,0],"sum_hessian":[1.2768692E1,2.1980302E0,1.0570662E1,1.1706812E0,1.027349E0,1.3422034E0,9.228458E0,7.801193E0,1.4272653E0,2.7424805E0,5.0587125E0,1.555759E0,1.1867216E0,2.0967858E0,2.9619267E0,1.2949631E0,1.6669636E0],"tree_param":{"num_deleted":"0","num_feature":"4","num_nodes":"17","size_leaf_vector":"0"}},{"base_weights":[-9.303936E-2,-3.1342578E-1,1.036608E-1,9.104816E-2,-5.1598334E-1,3.7305823E-1,-2.6742905E-1,-5.92032E-2,1.014689E-1,-3.5909277E-1,7.489186E-2,1.5793543E-1,-2.9044563E-2,-1.3175346E-1,3.0137531E-2,1.7567208E-1,-1.390325E-1],"categories":[],"categories_nodes":[],"categories_segments":[],"categories_sizes":[],"default_left":[1,0,0,0,0,0,0,0,0,0,0,0,0,0,0,0,0],"id":37,"left_children":[1,3,5,7,9,11,13,-1,-1,-1,15,-1,-1,-1,-1,-1,-1],"loss_changes":[6.116826E-1,5.8358085E-1,8.806632E-1,2.8313437E-1,1.9060198E0,4.072572E-1,2.8851494E-1,0E0,0E0,0E0,1.1945698E0,0E0,0E0,0E0,0E0,0E0,0E0],"parents":[2147483647,0,0,1,1,2,2,3,3,4,4,5,5,6,6,10,10],"right_children":[2,4,6,8,10,12,14,-1,-1,-1,16,-1,-1,-1,-1,-1,-1],"split_conditions":[-4.995265E-2,-8.425593E-2,4.1969385E-2,-1.3070396E-1,-3.813806E-1,-3.1558375E-3,2.3953275E-1,-5.92032E-2,1.014689E-1,-3.5909277E-1,-1.8604729E-1,1.5793543E-1,-2.9044563E-2,-1.3175346E-1,3.0137531E-2,1.7567208E-1,-1.390325E-1],"split_indices":[0,0,1,0,1,0,1,0,0,0,1,0,0,0,0,0,0],"split_type":[0,0,0,0,0,0,0,0,0,0,0,0,0,0,0,0,0],"sum_hessian":[1.2360831E1,5.549572E0,6.8112593E0,2.0355077E0,3.5140643E0,3.9432802E0,2.867979E0,1.0324955E0,1.0030122E0,1.1559951E0,2.3580692E0,2.8820167E0,1.0612637E0,1.823084E0,1.0448949E0,1.1650808E0,1.1929884E0],"tree_param":{"num_deleted":"0","num_feature":"4","num_nodes":"17","size_leaf_vector":"0"}},{"base_weights":[5.1326477E-3,1.0825399E-1,-1.4823407E-1,5.917492E-1,-9.370958E-2,2.2561082E-1,6.964939E-2,-4.206486E-1,1.6679156E-1,-1.7141457E-1,-1.7904371E-1,-4.28907E-1,1.849275E-1,9.352079E-2,-1.7089951E-1,-2.2489797E-1,4.2177342E-2],"categories":[],"categories_nodes":[],"categories_segments":[],"categories_sizes":[],"default_left":[1,0,0,0,0,0,0,0,0,0,0,0,0,0,0,0,0],"id":38,"left_children":[1,3,-1,5,7,-1,-1,9,11,-1,13,15,-1,-1,-1,-1,-1],"loss_changes":[7.789663E-1,1.276008E0,0E0,4.5550466E-2,8.9458066E-1,0E0,0E0,6.436437E-2,1.8991661E0,0E0,7.9385453E-1,6.9267094E-1,0E0,0E0,0E0,0E0,0E0],"parents":[2147483647,0,0,1,1,3,3,4,4,7,7,8,8,10,10,11,11],"right_children":[2,4,-1,6,8,-1,-1,10,12,-1,14,16,-1,-1,-1,-1,-1],"split_conditions":[9.5903957E-1,-5.8104433E-2,-1.4823407E-1,-7.452112E-2,-3.630602E-2,2.2561082E-1,6.964939E-2,-4.691465E-2,-2.446789E-2,-1.7141457E-1,-3.874324E-2,2.6318407E-1,1.849275E-1,9.352079E-2,-1.7089951E-1,-2.2489797E-1,4.2177342E-2],"split_indices":[3,0,0,0,0,0,0,0,2,0,0,3,0,0,0,0,0],"split_type":[0,0,0,0,0,0,0,0,0,0,0,0,0,0,0,0,0],"sum_hessian":[1.309159E1,1.1499489E1,1.5921013E0,2.81956E0,8.679929E0,1.1953318E0,1.6242281E0,3.576507E0,5.1034217E0,1.3618982E0,2.214609E0,2.2149856E0,2.888436E0,1.0709753E0,1.1436335E0,1.214566E0,1.0004196E0],"tree_param":{"num_deleted":"0","num_feature":"4","num_nodes":"17","size_leaf_vector":"0"}},{"base_weights":[-1.8740456E-1,1.7810346E-1,-4.261521E-1,-3.234053E-1,6.508721E-1,-2.599849E-1,-4.3788496E-2,9.5039435E-2,-2.2337352E-1,3.458445E-2,2.519681E-1,2.3806876E-1,-1.7112589E-1,-3.7771076E-2,1.2134382E-1],"categories":[],"categories_nodes":[],"categories_segments":[],"categories_sizes":[],"default_left":[1,0,0,0,0,0,0,0,0,0,0,0,0,0,0],"id":39,"left_children":[1,3,5,7,9,-1,11,-1,-1,-1,-1,13,-1,-1,-1],"loss_changes":[1.1942829E0,1.5783147E0,1.3173182E0,1.170838E0,2.3741758E-1,0E0,9.3153626E-1,0E0,0E0,0E0,0E0,3.0516183E-1,0E0,0E0,0E0],"parents":[2147483647,0,0,1,1,2,2,3,3,4,4,6,6,11,11],"right_children":[2,4,6,8,10,-1,12,-1,-1,-1,-1,14,-1,-1,-1],"split_conditions":[-3.4268913E-1,-3.9561662E-1,1.2312455E-3,-5.7906693E-1,-5.2716983E-3,-2.599849E-1,2.1470672E-2,9.5039435E-2,-2.2337352E-1,3.458445E-2,2.519681E-1,-2.7179003E-1,-1.7112589E-1,-3.7771076E-2,1.2134382E-1],"split_indices":[1,1,2,1,2,0,2,0,0,0,0,3,0,0,0],"split_type":[0,0,0,0,0,0,0,0,0,0,0,0,0,0,0],"sum_hessian":[1.1816073E1,4.769013E0,7.0470605E0,2.4674728E0,2.30154E0,2.686208E0,4.3608527E0,1.0774765E0,1.3899964E0,1.02033E0,1.2812101E0,3.197477E0,1.1633755E0,1.0795996E0,2.1178775E0],"tree_param":{"num_deleted":"0","num_feature":"4","num_nodes":"15","size_leaf_vector":"0"}},{"base_weights":[1.180868E0,7.982949E-1,4.952547E-1,2.0574706E0,-2.9232675E-1,7.154675E-1,9.1769606E-1,-7.836898E-1,5.9189534E-1,2.3477562E-3,3.2452923E-1,-1.1048561E0,5.510192E-2,1.3096374E-2,2.7536553E-1,-3.8457196E-2,-5.0140786E-1],"categories":[],"categories_nodes":[],"categories_segments":[],"categories_sizes":[],"default_left":[1,0,0,0,0,0,0,0,0,0,0,0,0,0,0,0,0],"id":40,"left_children":[1,-1,3,5,7,9,-1,11,13,-1,-1,15,-1,-1,-1,-1,-1],"loss_changes":[1.5182201E1,0E0,1.5785404E1,3.5379581E0,4.408983E0,8.018501E-1,0E0,2.1499996E0,6.4142764E-1,0E0,0E0,2.4677997E0,0E0,0E0,0E0,0E0,0E0],"parents":[2147483647,0,0,2,2,3,3,4,4,5,5,7,7,8,8,11,11],"right_children":[2,-1,4,6,8,10,-1,12,14,-1,-1,16,-1,-1,-1,-1,-1],"split_conditions":[-1.1805887E-2,7.982949E-1,-3.7859615E-2,3.875852E-2,3.6506716E-2,-4.1780353E-2,9.1769606E-1,3.8534442E-1,6.7672855E-1,2.3477562E-3,3.2452923E-1,-1.3056974E-1,5.510192E-2,1.3096374E-2,2.7536553E-1,-3.8457196E-2,-5.0140786E-1],"split_indices":[2,0,0,2,2,0,0,3,3,0,0,3,0,0,0,0,0],"split_type":[0,0,0,0,0,0,0,0,0,0,0,0,0,0,0,0,0],"sum_hessian":[1.5259643E1,3.9187033E0,1.13409395E1,3.260717E0,8.080222E0,2.1261375E0,1.1345795E0,5.2670264E0,2.8131957E0,1.0735433E0,1.0525941E0,3.8475127E0,1.419514E0,1.4718282E0,1.3413675E0,1.8626107E0,1.9849019E0],"tree_param":{"num_deleted":"0","num_feature":"4","num_nodes":"17","size_leaf_vector":"0"}},{"base_weights":[5.936673E-1,8.161146E-1,-2.4191655E-1,1.2188518E0,3.2205907E-1,5.604331E-1,4.0925652E-1,-4.0190873E-1,9.4983745E-1,3.6383665E-1,-9.918444E-2,1.1943096E0,-2.329504E-3,7.899528E-2,4.5354912E-1],"categories":[],"categories_nodes":[],"categories_segments":[],"categories_sizes":[],"default_left":[1,1,0,0,0,0,0,0,0,0,0,0,0,0,0],"id":41,"left_children":[1,3,-1,5,7,9,-1,-1,11,-1,-1,13,-1,-1,-1],"loss_changes":[6.210008E0,2.7670898E0,0E0,3.8241386E-2,1.0129818E1,2.269324E0,0E0,0E0,1.5889192E0,0E0,0E0,1.192791E0,0E0,0E0,0E0],"parents":[2147483647,0,0,1,1,3,3,4,4,5,5,8,8,11,11],"right_children":[2,4,-1,6,8,10,-1,-1,12,-1,-1,14,-1,-1,-1],"split_conditions":[5.7754785E-2,-6.844391E-3,-2.4191655E-1,-4.334738E-2,3.380975E-3,-6.541916E-2,4.0925652E-1,-4.0190873E-1,1.0373158E-2,3.6383665E-1,-9.918444E-2,-9.87632E-2,-2.329504E-3,7.899528E-2,4.5354912E-1],"split_indices":[0,0,0,0,0,0,0,0,2,0,0,3,0,0,0],"split_type":[0,0,0,0,0,0,0,0,0,0,0,0,0,0,0],"sum_hessian":[1.6826633E1,1.4879581E1,1.947052E0,7.389159E0,7.4904222E0,2.2142124E0,5.174947E0,1.7428914E0,5.747531E0,1.0698617E0,1.1443508E0,4.38171E0,1.3658209E0,1.5795767E0,2.8021333E0],"tree_param":{"num_deleted":"0","num_feature":"4","num_nodes":"15","size_leaf_vector":"0"}},{"base_weights":[2.4551222E-1,5.4449934E-1,2.1101005E-2,7.633246E-1,-4.4726142E-1,3.565696E-1,1.9079217E-1,-8.695924E-1,-4.4588678E-2,-2.4154013E-1,2.3099521E-1,-1.27434535E-2,-1.3745459E0,8.088243E-1,-6.622176E-1,-4.952859E-1,-1.3471569E-1,5.7382714E-2,3.1035656E-1,-2.6027614E-1,-1.1535879E-2],"categories":[],"categories_nodes":[],"categories_segments":[],"categories_sizes":[],"default_left":[0,0,0,0,0,0,0,0,0,0,0,0,0,0,0,0,0,0,0,0,0],"id":42,"left_children":[1,-1,3,5,7,-1,9,11,13,-1,-1,-1,15,17,19,-1,-1,-1,-1,-1,-1],"loss_changes":[6.4271846E0,0E0,6.2762294E0,1.4712777E0,1.8485196E0,0E0,3.0216901E0,2.181324E0,4.0856547E0,0E0,0E0,0E0,1.02277756E-1,2.5900173E-1,5.3761125E-1,0E0,0E0,0E0,0E0,0E0,0E0],"parents":[2147483647,0,0,2,2,3,3,4,4,6,6,7,7,8,8,12,12,13,13,14,14],"right_children":[2,-1,4,6,8,-1,10,12,14,-1,-1,-1,16,18,20,-1,-1,-1,-1,-1,-1],"split_conditions":[-5.540278E-2,5.4449934E-1,-1.1805887E-2,1.6079582E-2,-3.5530026E-3,3.565696E-1,2.534291E-2,-3.437379E-2,1.3086128E-2,-2.4154013E-1,2.3099521E-1,-1.27434535E-2,-2.2696499E-2,1.0373158E-2,6.7672855E-1,-4.952859E-1,-1.3471569E-1,5.7382714E-2,3.1035656E-1,-2.6027614E-1,-1.1535879E-2],"split_indices":[0,0,2,0,0,0,0,0,0,0,0,0,0,2,3,0,0,0,0,0,0],"split_type":[0,0,0,0,0,0,0,0,0,0,0,0,0,0,0,0,0,0,0,0,0],"sum_hessian":[1.735689E1,1.2846303E0,1.607226E1,5.9745283E0,1.0097732E1,2.810838E0,3.16369E0,4.3626003E0,5.735131E0,1.0198866E0,2.1438036E0,2.064716E0,2.2978842E0,2.2779686E0,3.4571624E0,1.1658349E0,1.1320493E0,1.1041914E0,1.1737773E0,2.3067837E0,1.1503785E0],"tree_param":{"num_deleted":"0","num_feature":"4","num_nodes":"21","size_leaf_vector":"0"}},{"base_weights":[3.9265808E-1,5.624885E-1,-1.955293E-1,2.8418392E-1,1.3792655E0,6.663715E-1,-8.9706385E-1,5.443132E-1,8.915931E-2,7.9008305E-1,-3.092322E-2,-4.6250783E-2,-3.4923765E-1,5.336443E-1,4.351593E-1,2.5307167E-1,-7.257308E-2],"categories":[],"categories_nodes":[],"categories_segments":[],"categories_sizes":[],"default_left":[0,0,0,0,0,0,0,0,0,0,0,0,0,0,0,0,0],"id":43,"left_children":[1,3,-1,5,7,9,11,-1,-1,13,-1,-1,-1,15,-1,-1,-1],"loss_changes":[3.9303024E0,3.6583E0,0E0,7.166159E0,1.4705982E0,1.1824431E0,6.107178E-1,0E0,0E0,9.3308496E-1,0E0,0E0,0E0,2.329535E0,0E0,0E0,0E0],"parents":[2147483647,0,0,1,1,3,3,4,4,5,5,6,6,9,9,13,13],"right_children":[2,4,-1,6,8,10,12,-1,-1,14,-1,-1,-1,16,-1,-1,-1],"split_conditions":[3.5988006E-1,1.85467E-1,-1.955293E-1,1.0540164E-2,5.5647064E-3,4.5273535E-2,-3.437379E-2,5.443132E-1,8.915931E-2,-1.0659712E-2,-3.092322E-2,-4.6250783E-2,-3.4923765E-1,-1.7967097E-1,4.351593E-1,2.5307167E-1,-7.257308E-2],"split_indices":[1,1,0,1,2,0,0,0,0,1,0,0,0,1,0,0,0],"split_type":[0,0,0,0,0,0,0,0,0,0,0,0,0,0,0,0,0],"sum_hessian":[1.9091324E1,1.681803E1,2.2732942E0,1.3549255E1,3.2687738E0,1.0566414E1,2.9828422E0,1.8486443E0,1.4201295E0,9.079759E0,1.4866548E0,1.2058281E0,1.7770143E0,7.8426266E0,1.237132E0,5.5407324E0,2.3018947E0],"tree_param":{"num_deleted":"0","num_feature":"4","num_nodes":"17","size_leaf_vector":"0"}},{"base_weights":[5.5069506E-1,1.2904769E0,2.9239208E-1,6.484965E-1,-1.2055155E-1,-9.3359746E-2,7.8144646E-1,-3.955332E-1,2.5421903E-1,3.0961362E-1,-1.1372245E-2,1.2132758E-1,-8.282023E-1,-2.1265021E-1,6.353037E-1,-3.837319E-1,2.0586008E-2,6.6060275E-2,2.318947E-1],"categories":[],"categories_nodes":[],"categories_segments":[],"categories_sizes":[],"default_left":[0,0,0,0,0,0,1,0,0,0,0,0,0,0,0,0,0,0,0],"id":44,"left_children":[1,3,5,-1,-1,7,9,11,-1,-1,-1,13,15,-1,17,-1,-1,-1,-1],"loss_changes":[3.3816338E0,7.942321E0,3.0675292E0,0E0,0E0,3.111709E0,1.4982333E0,1.9061651E0,0E0,0E0,0E0,2.3923607E0,1.9167688E0,0E0,2.0581603E-2,0E0,0E0,0E0,0E0],"parents":[2147483647,0,0,1,1,2,2,5,5,6,6,7,7,11,11,12,12,14,14],"right_children":[2,4,6,-1,-1,8,10,12,-1,-1,-1,14,16,-1,18,-1,-1,-1,-1],"split_conditions":[-2.4670176E-1,3.5988006E-1,1.8643732E-1,6.484965E-1,-1.2055155E-1,1.9147032E-1,4.5273535E-2,1.0540164E-2,2.5421903E-1,3.0961362E-1,-1.1372245E-2,-1.7843449E-1,-3.5530026E-3,-2.1265021E-1,-3.1387217E-2,-3.837319E-1,2.0586008E-2,6.6060275E-2,2.318947E-1],"split_indices":[3,1,3,0,0,1,0,1,0,0,0,1,0,0,1,0,0,0,0],"split_type":[0,0,0,0,0,0,0,0,0,0,0,0,0,0,0,0,0,0,0],"sum_hessian":[1.8671364E1,3.7979686E0,1.4873395E1,2.3241804E0,1.4737883E0,8.767192E0,6.1062036E0,7.074426E0,1.6927658E0,4.4772534E0,1.6289499E0,3.5514703E0,3.5229557E0,1.213055E0,2.3384154E0,2.060642E0,1.4623138E0,1.2298342E0,1.1085811E0],"tree_param":{"num_deleted":"0","num_feature":"4","num_nodes":"19","size_leaf_vector":"0"}},{"base_weights":[1.8336287E-1,4.9257597E-1,-3.527757E-1,1.8925299E-1,4.50714E-1,-2.6408377E-1,6.604851E-2,4.3568313E-1,-1.8193619E-1,2.2593296E-1,-4.005008E-1,7.008691E-1,-1.6378102E-1,-2.1606773E-1,1.7548054E-2,2.788479E-1,2.1706443E-1,-1.7375581E-1,2.8779146E-1],"categories":[],"categories_nodes":[],"categories_segments":[],"categories_sizes":[],"default_left":[0,0,1,0,0,0,0,0,0,0,0,0,0,0,0,0,0,0,0],"id":45,"left_children":[1,3,5,7,-1,-1,9,11,-1,-1,13,15,-1,-1,-1,-1,17,-1,-1],"loss_changes":[3.2700653E0,3.4716775E0,1.6962085E0,2.337673E0,0E0,0E0,1.9246001E0,2.635806E0,0E0,0E0,5.804596E-1,6.004398E-1,0E0,0E0,0E0,0E0,2.7022107E0,0E0,0E0],"parents":[2147483647,0,0,1,1,2,2,3,3,6,6,7,7,10,10,11,11,16,16],"right_children":[2,4,6,8,-1,-1,10,12,-1,-1,14,16,-1,-1,-1,-1,18,-1,-1],"split_conditions":[9.737922E-3,3.380975E-3,2.944243E-2,-6.844391E-3,4.50714E-1,-2.6408377E-1,4.315828E-2,2.0041208E-1,-1.8193619E-1,2.2593296E-1,3.8534442E-1,9.144978E-3,-1.6378102E-1,-2.1606773E-1,1.7548054E-2,2.788479E-1,1.6369092E-1,-1.7375581E-1,2.8779146E-1],"split_indices":[0,0,0,0,0,0,0,1,0,0,3,1,0,0,0,0,1,0,0],"split_type":[0,0,0,0,0,0,0,0,0,0,0,0,0,0,0,0,0,0,0],"sum_hessian":[1.7677021E1,1.1262645E1,6.4143763E0,9.574184E0,1.6884596E0,2.3512375E0,4.063139E0,7.655681E0,1.9185038E0,1.394833E0,2.668306E0,6.252553E0,1.4031283E0,1.2372954E0,1.4310106E0,3.6204698E0,2.6320832E0,1.3758242E0,1.256259E0],"tree_param":{"num_deleted":"0","num_feature":"4","num_nodes":"19","size_leaf_vector":"0"}},{"base_weights":[1.3236299E-1,2.6030335E-1,-2.5482652E-1,9.5414937E-1,2.336769E-2,4.2240205E-1,5.193694E-2,-2.9517654E-1,4.4497582E-1,-6.319166E-1,2.0920257E-1,3.411183E-1,-2.6538914E-2,-3.6128002E-1,-8.1171066E-2,-1.309369E-1,3.0159613E-1,-1.3876165E-1,1.4015438E-1,9.568961E-3,1.2786227E-1],"categories":[],"categories_nodes":[],"categories_segments":[],"categories_sizes":[],"default_left":[1,0,0,0,0,0,0,0,0,0,0,0,0,0,0,0,0,0,0,0,0],"id":46,"left_children":[1,3,-1,5,7,-1,-1,9,11,13,-1,-1,15,-1,17,-1,19,-1,-1,-1,-1],"loss_changes":[2.5706484E0,2.82407E0,0E0,1.3096435E0,2.0023885E0,0E0,0E0,3.2939148E0,2.1169457E0,2.0769336E0,0E0,0E0,7.7466697E-1,0E0,1.175573E0,0E0,9.5514E-2,0E0,0E0,0E0,0E0],"parents":[2147483647,0,0,1,1,3,3,4,4,7,7,8,8,9,9,12,12,14,14,16,16],"right_children":[2,4,-1,6,8,-1,-1,10,12,14,-1,-1,16,-1,18,-1,20,-1,-1,-1,-1],"split_conditions":[3.8696146E-1,-2.4670176E-1,-2.5482652E-1,1.8810685E-1,3.380975E-3,4.2240205E-1,5.193694E-2,1.9147032E-1,1.7994182E-2,4.4095278E-2,2.0920257E-1,3.411183E-1,1.8561083E-1,-3.6128002E-1,-1.7913844E-1,-1.309369E-1,-2.0193647E-1,-1.3876165E-1,1.4015438E-1,9.568961E-3,1.2786227E-1],"split_indices":[1,3,0,1,0,0,0,1,0,3,0,0,3,0,1,0,1,0,0,0,0],"split_type":[0,0,0,0,0,0,0,0,0,0,0,0,0,0,0,0,0,0,0,0,0],"sum_hessian":[1.7705067E1,1.6313992E1,1.3910755E0,3.3822675E0,1.2931724E1,1.6314566E0,1.7508109E0,7.5370317E0,5.3946924E0,5.898961E0,1.6380702E0,1.614069E0,3.7806232E0,2.3108501E0,3.5881112E0,1.534083E0,2.2465403E0,2.2085814E0,1.3795297E0,1.1068736E0,1.1396667E0],"tree_param":{"num_deleted":"0","num_feature":"4","num_nodes":"21","size_leaf_vector":"0"}},{"base_weights":[1.3811885E-1,4.8882458E-1,-2.5797814E-1,2.4888389E-1,3.023343E-1,-2.2979501E-1,-2.1741537E-2,6.534091E-1,-3.9859644E-1,3.0544823E-1,-4.072936E-1,2.436568E-2,2.698707E-1,6.0211733E-2,-2.4441135E-1,6.342609E-2,-6.082081E-1,-2.4413766E-1,1.3029083E-2],"categories":[],"categories_nodes":[],"categories_segments":[],"categories_sizes":[],"default_left":[0,0,0,0,0,0,0,0,0,0,1,0,0,0,0,0,0,0,0],"id":47,"left_children":[1,3,5,7,-1,-1,9,11,13,-1,15,-1,-1,-1,-1,-1,17,-1,-1],"loss_changes":[2.6783285E0,1.0055954E0,1.0973427E0,2.4155192E0,0E0,0E0,3.367716E0,6.9357824E-1,1.1073904E0,0E0,8.8530934E-1,0E0,0E0,0E0,0E0,0E0,6.855068E-1,0E0,0E0],"parents":[2147483647,0,0,1,1,2,2,3,3,6,6,7,7,8,8,10,10,16,16],"right_children":[2,4,6,8,-1,-1,10,12,14,-1,16,-1,-1,-1,-1,-1,18,-1,-1],"split_conditions":[9.144978E-3,-1.0659712E-2,1.6758436E-1,-1.8282332E-1,3.023343E-1,-2.2979501E-1,1.9130845E-1,4.1962835E-1,1.6212592E-1,3.0544823E-1,-3.7859615E-2,2.436568E-2,2.698707E-1,6.0211733E-2,-2.4441135E-1,6.342609E-2,-2.75884E-1,-2.4413766E-1,1.3029083E-2],"split_indices":[1,1,1,1,0,0,1,3,3,0,0,0,0,0,0,0,3,0,0],"split_type":[0,0,0,0,0,0,0,0,0,0,0,0,0,0,0,0,0,0,0],"sum_hessian":[1.7372747E1,9.090172E0,8.282576E0,7.227915E0,1.8622576E0,1.9172541E0,6.365321E0,4.442946E0,2.7849686E0,1.2778761E0,5.0874453E0,1.7364863E0,2.7064595E0,1.353394E0,1.4315747E0,1.2342616E0,3.8531833E0,2.739929E0,1.1132545E0],"tree_param":{"num_deleted":"0","num_feature":"4","num_nodes":"19","size_leaf_vector":"0"}},{"base_weights":[2.5532642E-1,3.9881614E-1,-1.3876657E-1,1.4969154E-1,7.404833E-1,-2.852032E-1,6.073811E-1,-2.5712503E-3,9.154334E-1,1.8822274E-1,-8.611233E-1,1.5563837E-1,2.8700867E-1,3.3634034E-1,1.16781704E-1,-4.4951946E-2,-3.3464882E-1,-3.8524188E-2,1.182603E-1],"categories":[],"categories_nodes":[],"categories_segments":[],"categories_sizes":[],"default_left":[0,0,0,0,0,0,0,0,0,0,0,0,0,0,0,0,0,0,0],"id":48,"left_children":[1,3,-1,5,7,9,11,-1,13,-1,15,17,-1,-1,-1,-1,-1,-1,-1],"loss_changes":[1.8692771E0,1.0951302E0,0E0,2.0536625E0,7.575805E-1,3.4440181E0,6.278726E-1,0E0,6.654358E-2,0E0,5.21961E-1,2.770097E-1,0E0,0E0,0E0,0E0,0E0,0E0,0E0],"parents":[2147483647,0,0,1,1,3,3,4,4,5,5,6,6,8,8,10,10,11,11],"right_children":[2,4,-1,6,8,10,12,-1,14,-1,16,18,-1,-1,-1,-1,-1,-1,-1],"split_conditions":[4.5273535E-2,3.7133931E-3,-1.3876657E-1,2.137411E-2,-3.364123E-1,-5.128596E-1,-4.4244397E-2,-2.5712503E-3,-2.034144E-2,1.8822274E-1,-3.0069018E-2,1.5852503E-2,2.8700867E-1,3.3634034E-1,1.16781704E-1,-4.4951946E-2,-3.3464882E-1,-3.8524188E-2,1.182603E-1],"split_indices":[0,0,0,2,3,3,0,0,2,0,0,3,0,0,0,0,0,0,0],"split_type":[0,0,0,0,0,0,0,0,0,0,0,0,0,0,0,0,0,0,0],"sum_hessian":[1.5355933E1,1.3168313E1,2.1876202E0,8.447205E0,4.721109E0,4.5247083E0,3.9224958E0,1.0739536E0,3.6471553E0,1.7160404E0,2.8086681E0,2.340828E0,1.5816678E0,1.8091083E0,1.838047E0,1.1584466E0,1.6502215E0,1.2793027E0,1.0615253E0],"tree_param":{"num_deleted":"0","num_feature":"4","num_nodes":"19","size_leaf_vector":"0"}},{"base_weights":[1.08689144E-1,2.8896338E-1,-9.58959E-3,3.097829E-1,-5.35508E-1,2.0624731E-1,-5.449299E-2,-1.9767427E-1,-2.3405518E-1,-2.3284733E-1,2.57364E-1,-2.2589554E-1,8.708668E-2,2.506987E-1,-7.8287095E-2,1.2310498E-1,-1.3385618E-1],"categories":[],"categories_nodes":[],"categories_segments":[],"categories_sizes":[],"default_left":[1,0,0,0,0,0,0,0,0,0,0,0,0,0,0,0,0],"id":49,"left_children":[1,-1,3,5,7,-1,9,11,-1,-1,13,-1,-1,-1,15,-1,-1],"loss_changes":[1.8072212E0,0E0,2.9568484E0,1.5470767E0,3.9501774E-1,0E0,1.6652722E0,1.3377826E0,0E0,0E0,1.0937757E0,0E0,0E0,0E0,9.500912E-1,0E0,0E0],"parents":[2147483647,0,0,2,2,3,3,4,4,6,6,7,7,10,10,14,14],"right_children":[2,-1,4,6,8,-1,10,12,-1,-1,14,-1,-1,-1,16,-1,-1],"split_conditions":[-4.0013918E-1,2.8896338E-1,9.827856E-2,1.9130845E-1,3.963945E-1,2.0624731E-1,-5.431253E-1,1.8643732E-1,-2.3405518E-1,-2.3284733E-1,-4.225498E-1,-2.2589554E-1,8.708668E-2,2.506987E-1,2.0252287E-1,1.2310498E-1,-1.3385618E-1],"split_indices":[1,0,3,1,3,0,3,3,0,0,3,0,0,0,1,0,0],"split_type":[0,0,0,0,0,0,0,0,0,0,0,0,0,0,0,0,0],"sum_hessian":[1.6789183E1,1.1727691E0,1.5616414E1,9.9718275E0,5.6445866E0,4.460044E0,5.5117836E0,3.1303253E0,2.514261E0,1.2138957E0,4.297888E0,1.210096E0,1.9202294E0,1.0313259E0,3.2665617E0,1.3534949E0,1.913067E0],"tree_param":{"num_deleted":"0","num_feature":"4","num_nodes":"17","size_leaf_vector":"0"}},{"base_weights":[1.7466943E-1,-4.038089E-1,7.11779E-1,3.1544054E-1,-1.4969145E0,1.1186033E0,-2.0538552E-1,-6.211501E-1,1.3089409E0,-5.554246E-1,-1.3029246E-1,5.410391E-1,4.765467E-1,-2.4723616E-1,1.4590245E-1,3.2114096E-2,-3.2664976E-1,4.6387288E-1,1.3218029E-1,-2.4530308E-1,1.3234704E0,5.346437E-1,4.8082475E-2],"categories":[],"categories_nodes":[],"categories_segments":[],"categories_sizes":[],"default_left":[1,1,0,1,0,0,0,1,0,0,0,0,0,0,0,0,0,0,0,0,0,0,0],"id":50,"left_children":[1,3,5,7,9,11,13,15,17,-1,-1,19,-1,-1,-1,-1,-1,-1,-1,-1,21,-1,-1],"loss_changes":[6.1021314E0,8.057821E0,3.9856968E0,6.9964533E0,7.03845E-1,1.0751E0,2.086223E0,1.5124496E0,4.950428E-2,0E0,0E0,6.0939198E0,0E0,0E0,0E0,0E0,0E0,0E0,0E0,0E0,1.5141945E0,0E0,0E0],"parents":[2147483647,0,0,1,1,2,2,3,3,4,4,5,5,6,6,7,7,8,8,11,11,20,20],"right_children":[2,4,6,8,10,12,14,16,18,-1,-1,20,-1,-1,-1,-1,-1,-1,-1,-1,22,-1,-1],"split_conditions":[-2.32503E-2,4.7837188E-5,-2.9726315E-2,-4.839703E-1,-1.0967202E-2,-5.577165E-2,-1.0562609E-2,-5.9654623E-1,-2.2449213E-1,-5.554246E-1,-1.3029246E-1,2.1216199E-3,4.765467E-1,-2.4723616E-1,1.4590245E-1,3.2114096E-2,-3.2664976E-1,4.6387288E-1,1.3218029E-1,-2.4530308E-1,-9.926823E-2,5.346437E-1,4.8082475E-2],"split_indices":[0,3,2,3,2,2,2,3,3,0,0,3,0,0,0,0,0,0,0,0,2,0,0],"split_type":[0,0,0,0,0,0,0,0,0,0,0,0,0,0,0,0,0,0,0,0,0,0,0],"sum_hessian":[1.771449E1,8.648286E0,9.066205E0,5.645227E0,3.0030594E0,6.1282706E0,2.937934E0,3.0987582E0,2.5464687E0,1.6951867E0,1.3078727E0,3.7142692E0,2.4140017E0,1.4497595E0,1.4881744E0,1.5134218E0,1.5853364E0,1.3867941E0,1.1596745E0,1.3408301E0,2.373439E0,1.3205881E0,1.0528508E0],"tree_param":{"num_deleted":"0","num_feature":"4","num_nodes":"23","size_leaf_vector":"0"}},{"base_weights":[-1.8053952E-1,-4.2020825E-1,7.57268E-1,-3.7520579E-1,7.661275E-3,1.5237856E-2,4.11712E-1,5.0989765E-1,-4.43528E-1,4.957989E-2,8.076154E-1,-3.972914E-1,6.1116368E-2,1.7537946E-1,-1.6346583E-1,-3.4079444E-2,3.717847E-1,-1.2799765E-1,4.5780346E-1,1.9856633E-1,6.803473E-3],"categories":[],"categories_nodes":[],"categories_segments":[],"categories_sizes":[],"default_left":[0,0,0,0,0,0,0,0,0,0,0,0,0,0,0,0,0,0,0,0,0],"id":51,"left_children":[1,3,5,-1,7,-1,-1,9,11,13,15,-1,17,-1,-1,-1,-1,-1,19,-1,-1],"loss_changes":[4.507832E0,5.5134506E0,1.7341256E0,0E0,2.7678292E0,0E0,0E0,7.511349E-1,2.9448338E0,1.3785353E0,1.5088518E0,0E0,1.1728914E0,0E0,0E0,0E0,0E0,0E0,2.752514E-1,0E0,0E0],"parents":[2147483647,0,0,1,1,2,2,4,4,7,7,8,8,9,9,10,10,12,12,18,18],"right_children":[2,4,6,-1,8,-1,-1,10,12,14,16,-1,18,-1,-1,-1,-1,-1,20,-1,-1],"split_conditions":[3.0757016E-2,-5.7733636E-2,1.5318513E-1,-3.7520579E-1,-1.2417986E-2,1.5237856E-2,4.11712E-1,-1.2726751E-2,1.08096264E-1,-3.4641847E-2,-5.1908385E-2,-3.972914E-1,-3.5252284E-2,1.7537946E-1,-1.6346583E-1,-3.4079444E-2,3.717847E-1,-1.2799765E-1,-1.3831051E-2,1.9856633E-1,6.803473E-3],"split_indices":[0,2,3,0,3,0,0,2,3,2,0,0,0,0,0,0,0,0,2,0,0],"split_type":[0,0,0,0,0,0,0,0,0,0,0,0,0,0,0,0,0,0,0,0,0],"sum_hessian":[1.7640165E1,1.4489192E1,3.1509736E0,4.2728004E0,1.0216392E1,1.9704275E0,1.180546E0,4.773123E0,5.4432683E0,2.3327947E0,2.4403284E0,1.3910966E0,4.0521717E0,1.2365243E0,1.0962702E0,1.0137463E0,1.426582E0,1.7835386E0,2.2686331E0,1.1895583E0,1.0790747E0],"tree_param":{"num_deleted":"0","num_feature":"4","num_nodes":"21","size_leaf_vector":"0"}},{"base_weights":[2.2287129E-1,-1.3489798E-2,1.065684E0,-4.5139137E-1,7.644425E-1,-4.030819E-3,5.2281356E-1,1.8279296E-1,-6.291744E-1,1.2006458E0,-1.04079425E-1,-9.383483E-1,-1.2378009E-1,1.0699322E-1,4.3718323E-1,-6.784547E-2,-3.4256843E-1,3.6117852E-1,-2.4217413E-1,2.1276756E-1,-6.0299084E-2],"categories":[],"categories_nodes":[],"categories_segments":[],"categories_sizes":[],"default_left":[1,1,0,0,0,0,0,0,0,0,0,0,0,0,0,0,0,0,0,0,0],"id":52,"left_children":[1,3,5,7,9,-1,-1,-1,11,13,-1,15,17,-1,-1,-1,-1,19,-1,-1,-1],"loss_changes":[3.736567E0,5.6525297E0,3.0224195E0,2.3817623E0,3.3168461E0,0E0,0E0,0E0,1.3789165E0,4.5941114E-1,0E0,5.8031416E-1,1.8770982E0,0E0,0E0,0E0,0E0,8.252279E-1,0E0,0E0,0E0],"parents":[2147483647,0,0,1,1,2,2,3,3,4,4,8,8,9,9,11,11,12,12,17,17],"right_children":[2,4,6,8,10,-1,-1,-1,12,14,-1,16,18,-1,-1,-1,-1,20,-1,-1,-1],"split_conditions":[3.0757016E-2,-1.0896002E-2,8.2030766E-2,-1.4739242E-1,-6.4545986E-3,-4.030819E-3,5.2281356E-1,1.8279296E-1,-2.32503E-2,-5.0734067E-1,-1.04079425E-1,-1.014416E-1,1.818237E-2,1.0699322E-1,4.3718323E-1,-6.784547E-2,-3.4256843E-1,1.7382014E-1,-2.4217413E-1,2.1276756E-1,-6.0299084E-2],"split_indices":[0,2,3,0,3,0,0,0,0,3,0,2,0,0,0,0,0,3,0,0,0],"split_type":[0,0,0,0,0,0,0,0,0,0,0,0,0,0,0,0,0,0,0,0,0],"sum_hessian":[1.7684938E1,1.4580055E1,3.1048832E0,9.597394E0,4.9826612E0,1.5748583E0,1.5300248E0,1.0292636E0,8.5681305E0,3.520553E0,1.4621081E0,4.7845354E0,3.783595E0,1.3780802E0,2.142473E0,1.5327145E0,3.2518208E0,2.489034E0,1.2945613E0,1.3757346E0,1.1132993E0],"tree_param":{"num_deleted":"0","num_feature":"4","num_nodes":"21","size_leaf_vector":"0"}},{"base_weights":[-1.4713302E-1,-3.6978668E-1,7.226436E-1,-5.137952E-1,2.0318161E-1,3.8101515E-1,-2.0491283E-2,1.8112066E-1,-6.5004337E-1,-1.1190815E0,-5.049111E-2,-3.8367656E-1,-4.3080628E-1,-2.3106933E-1,2.279714E-1,-3.0747518E-1,1.6168235E-1,2.776189E-1,-7.543199E-2],"categories":[],"categories_nodes":[],"categories_segments":[],"categories_sizes":[],"default_left":[1,1,0,0,0,0,0,0,0,0,0,0,0,0,0,0,0,0,0],"id":53,"left_children":[1,3,5,7,-1,-1,-1,-1,9,11,13,15,-1,-1,17,-1,-1,-1,-1],"loss_changes":[4.208223E0,2.890828E0,2.02913E0,2.7363176E0,0E0,0E0,0E0,0E0,3.9373865E0,1.2953081E0,1.6348771E0,2.771106E0,0E0,0E0,2.2460136E0,0E0,0E0,0E0,0E0],"parents":[2147483647,0,0,1,1,2,2,3,3,8,8,9,9,10,10,11,11,14,14],"right_children":[2,4,6,8,-1,-1,-1,-1,10,12,14,16,-1,-1,18,-1,-1,-1,-1],"split_conditions":[3.0757016E-2,4.948617E-2,-1.4212239E-1,-1.432412E-1,2.0318161E-1,3.8101515E-1,-2.0491283E-2,1.8112066E-1,-3.0284593E-2,-1.4945056E-1,-5.577165E-2,-1.991413E-1,-4.3080628E-1,-2.3106933E-1,-2.0071371E-1,-3.0747518E-1,1.6168235E-1,2.776189E-1,-7.543199E-2],"split_indices":[0,2,1,0,0,0,0,0,0,1,2,1,0,0,1,0,0,0,0],"split_type":[0,0,0,0,0,0,0,0,0,0,0,0,0,0,0,0,0,0,0],"sum_hessian":[1.93502E1,1.5864026E1,3.4861748E0,1.4393671E1,1.4703548E0,1.7022991E0,1.7838757E0,1.1912978E0,1.32023735E1,6.9212523E0,6.281121E0,2.7502725E0,4.17098E0,1.2595522E0,5.021569E0,1.5571427E0,1.1931298E0,1.6666821E0,3.3548865E0],"tree_param":{"num_deleted":"0","num_feature":"4","num_nodes":"19","size_leaf_vector":"0"}},{"base_weights":[-1.66392E-2,-1.0621408E0,1.9111559E-1,-4.0332994E-1,-7.7825844E-2,6.377947E-1,-3.6177684E-2,8.045262E-1,2.4739215E-1,-7.1138275E-1,4.6226695E-1,7.174112E-2,3.424417E-1,2.0681746E-2,9.215738E-2,-1.1076818E0,9.611561E-3,-1.1960157E-1,8.5302216E-1,-3.9791387E-2,-4.4094953E-1,3.4222838E-1,7.506282E-2],"categories":[],"categories_nodes":[],"categories_segments":[],"categories_sizes":[],"default_left":[0,0,0,0,0,0,0,0,0,0,1,0,0,0,0,0,0,0,0,0,0,0,0],"id":54,"left_children":[1,3,5,-1,-1,7,9,11,13,15,17,-1,-1,-1,-1,19,-1,-1,21,-1,-1,-1,-1],"loss_changes":[4.4887743E0,4.269731E-1,1.7802917E0,0E0,0E0,1.8440318E-1,4.5078883E0,4.2880392E-1,1.3044596E-2,1.7052047E0,2.9472327E0,0E0,0E0,0E0,0E0,1.1203423E0,0E0,0E0,6.943989E-1,0E0,0E0,0E0,0E0],"parents":[2147483647,0,0,1,1,2,2,5,5,6,6,7,7,8,8,9,9,10,10,15,15,18,18],"right_children":[2,4,6,-1,-1,8,10,12,14,16,18,-1,-1,-1,-1,20,-1,-1,22,-1,-1,-1,-1],"split_conditions":[-4.0544438E-1,3.8720617E-1,-1.5228726E-1,-4.0332994E-1,-7.7825844E-2,1.7422731E-1,3.8241748E-2,2.1216199E-3,3.2655925E-1,1.3747682E-2,-6.754449E-2,7.174112E-2,3.424417E-1,2.0681746E-2,9.215738E-2,-5.7956964E-2,9.611561E-3,-1.1960157E-1,-1.6136749E-2,-3.9791387E-2,-4.4094953E-1,3.4222838E-1,7.506282E-2],"split_indices":[1,3,1,0,0,3,1,3,3,3,0,0,0,0,0,0,0,0,0,0,0,0,0],"split_type":[0,0,0,0,0,0,0,0,0,0,0,0,0,0,0,0,0,0,0,0,0,0,0],"sum_hessian":[1.8731241E1,2.423382E0,1.630786E1,1.293614E0,1.1297681E0,4.8906536E0,1.1417206E1,2.6837344E0,2.2069192E0,4.667412E0,6.7497935E0,1.6405843E0,1.0431501E0,1.0942612E0,1.1126581E0,2.724873E0,1.942539E0,2.100833E0,4.6489606E0,1.1079924E0,1.6168807E0,2.5428102E0,2.1061502E0],"tree_param":{"num_deleted":"0","num_feature":"4","num_nodes":"23","size_leaf_vector":"0"}},{"base_weights":[9.344436E-2,-9.365354E-1,3.0192384E-1,-4.49268E-1,5.0260026E-2,7.255859E-2,5.6993055E-1,5.6759256E-1,-6.105101E-1,-9.999507E-2,9.63605E-1,3.1872797E-1,2.5398684E-1,1.05748065E-1,-9.9427515E-1,3.7001294E-1,-3.9545363E-3,2.3278438E-1,-1.1502735E-1,-4.367908E-1,-2.0463191E-2,-1.3869406E-1,9.6097276E-2],"categories":[],"categories_nodes":[],"categories_segments":[],"categories_sizes":[],"default_left":[0,0,1,0,0,1,0,1,0,0,0,0,0,0,0,0,0,0,0,0,0,0,0],"id":55,"left_children":[1,3,5,-1,-1,7,9,11,13,-1,15,17,-1,-1,19,-1,-1,-1,21,-1,-1,-1,-1],"loss_changes":[4.3614917E0,2.3824778E0,9.762075E-1,0E0,0E0,3.7501287E0,2.9837348E0,1.714046E-1,2.0916226E0,0E0,1.4581566E0,1.0734205E0,0E0,0E0,1.4529583E0,0E0,0E0,0E0,6.647843E-1,0E0,0E0,0E0,0E0],"parents":[2147483647,0,0,1,1,2,2,5,5,6,6,7,7,8,8,10,10,11,11,14,14,18,18],"right_children":[2,4,6,-1,-1,8,10,12,14,-1,16,18,-1,-1,20,-1,-1,-1,22,-1,-1,-1,-1],"split_conditions":[-4.0544438E-1,4.320724E-1,3.8241748E-2,-4.49268E-1,5.0260026E-2,-1.5175949E-1,-6.9813445E-2,-1.991413E-1,-4.6363514E-2,-9.999507E-2,1.818237E-2,-3.4174028E-1,2.5398684E-1,1.05748065E-1,2.7332628E-2,3.7001294E-1,-3.9545363E-3,2.3278438E-1,2.4100887E-2,-4.367908E-1,-2.0463191E-2,-1.3869406E-1,9.6097276E-2],"split_indices":[1,3,1,0,0,1,0,1,0,0,0,1,0,0,0,0,0,0,0,0,0,0,0],"split_type":[0,0,0,0,0,0,0,0,0,0,0,0,0,0,0,0,0,0,0,0,0,0,0],"sum_hessian":[1.7994719E1,2.4413188E0,1.55534E1,1.3824406E0,1.0588782E0,9.065611E0,6.487789E0,5.354296E0,3.7113142E0,2.0158768E0,4.4719124E0,3.9624722E0,1.3918241E0,1.0807679E0,2.6305463E0,3.2982943E0,1.1736182E0,1.5449935E0,2.4174788E0,1.3735465E0,1.2569999E0,1.3103013E0,1.1071774E0],"tree_param":{"num_deleted":"0","num_feature":"4","num_nodes":"23","size_leaf_vector":"0"}},{"base_weights":[4.6036188E-3,-5.304959E-1,1.2461333E-1,7.6349536E-3,-2.3256724E-1,1.5663404E-2,2.3681682E-1,1.2325872E-1,-1.3896793E-1,-7.3250294E-2,2.5413287E-1,2.2521813E-1,-4.3897638E-1,-9.920486E-2,1.321805E-1,2.6786994E-2,-2.2760606E-1],"categories":[],"categories_nodes":[],"categories_segments":[],"categories_sizes":[],"default_left":[1,0,0,0,0,0,0,0,0,0,0,0,0,0,0,0,0],"id":56,"left_children":[1,3,5,-1,-1,7,-1,9,-1,11,-1,13,15,-1,-1,-1,-1],"loss_changes":[1.2610714E0,5.094013E-1,1.1471334E0,0E0,0E0,8.184026E-1,0E0,1.890491E0,0E0,1.3028929E0,0E0,9.520297E-1,9.621458E-1,0E0,0E0,0E0,0E0],"parents":[2147483647,0,0,1,1,2,2,5,5,7,7,9,9,11,11,12,12],"right_children":[2,4,6,-1,-1,8,-1,10,-1,12,-1,14,16,-1,-1,-1,-1],"split_conditions":[-3.4665573E-1,2.7469167E-1,3.038911E-1,7.6349536E-3,-2.3256724E-1,1.7422731E-1,2.3681682E-1,1.5422097E-2,-1.3896793E-1,-2.810395E-1,2.5413287E-1,-6.441934E-2,1.391402E-3,-9.920486E-2,1.321805E-1,2.6786994E-2,-2.2760606E-1],"split_indices":[1,3,3,0,0,3,0,3,0,3,0,0,0,0,0,0,0],"split_type":[0,0,0,0,0,0,0,0,0,0,0,0,0,0,0,0,0],"sum_hessian":[1.7608187E1,2.5990586E0,1.5009129E1,1.0682765E0,1.530782E0,1.3775095E1,1.2340337E0,1.1854322E1,1.9207724E0,1.0030166E1,1.8241566E0,5.7344666E0,4.295699E0,1.4518768E0,4.28259E0,1.8913257E0,2.4043732E0],"tree_param":{"num_deleted":"0","num_feature":"4","num_nodes":"17","size_leaf_vector":"0"}},{"base_weights":[1.8459385E-2,2.5366774E-1,-2.4788544E-1,7.159694E-1,-1.6554683E-1,-5.652553E-1,4.5859918E-1,2.6516345E-1,7.473826E-2,-4.3660575E-1,1.20006E-1,1.5096058E-1,-9.9380684E-1,1.0695271E-2,2.0774312E-1,-2.3934847E-1,5.1164303E-2,1.7134485E-1,-9.974561E-2,-3.5455072E-1,-6.2231142E-2],"categories":[],"categories_nodes":[],"categories_segments":[],"categories_sizes":[],"default_left":[0,0,1,0,0,0,0,0,0,0,0,0,1,0,0,0,0,0,0,0,0],"id":57,"left_children":[1,3,5,7,9,11,13,-1,-1,15,-1,17,19,-1,-1,-1,-1,-1,-1,-1,-1],"loss_changes":[1.2026135E0,2.086696E0,2.2856052E0,1.730957E-1,1.1156392E0,2.2016037E0,3.0703652E-1,0E0,0E0,1.1509751E0,0E0,8.7454855E-1,3.9266968E-1,0E0,0E0,0E0,0E0,0E0,0E0,0E0,0E0],"parents":[2147483647,0,0,1,1,2,2,3,3,4,4,5,5,6,6,9,9,11,11,12,12],"right_children":[2,4,6,8,10,12,14,-1,-1,16,-1,18,20,-1,-1,-1,-1,-1,-1,-1,-1],"split_conditions":[-1.9764122E-2,1.7422731E-1,4.2570698E-1,2.3563957E-2,4.6976584E-1,-6.2127355E-2,5.5764574E-1,2.6516345E-1,7.473826E-2,-2.2159038E-1,1.20006E-1,9.287797E-2,2.2617677E-2,1.0695271E-2,2.0774312E-1,-2.3934847E-1,5.1164303E-2,1.7134485E-1,-9.974561E-2,-3.5455072E-1,-6.2231142E-2],"split_indices":[1,3,1,0,3,0,1,0,0,1,0,1,0,0,0,0,0,0,0,0,0],"split_type":[0,0,0,0,0,0,0,0,0,0,0,0,0,0,0,0,0,0,0,0,0],"sum_hessian":[1.7193071E1,9.155485E0,8.037586E0,4.017349E0,5.1381364E0,5.68407E0,2.3535163E0,2.2976427E0,1.719706E0,3.6275723E0,1.5105637E0,2.3703578E0,3.3137126E0,1.2483733E0,1.1051431E0,2.0775177E0,1.5500546E0,1.1710885E0,1.1992693E0,2.2684119E0,1.0453006E0],"tree_param":{"num_deleted":"0","num_feature":"4","num_nodes":"21","size_leaf_vector":"0"}},{"base_weights":[8.7731674E-2,-1.1337102E-1,5.6335497E-1,2.0299171E-1,-2.4054992E-1,8.0925536E-1,-7.514803E-2,-5.234976E-1,1.9279073E-1,3.0541468E-1,3.8324356E-1,-6.366526E-1,3.231096E-2,-8.821055E-2,5.25074E-1,-1.1047079E-1,2.576095E-1,-3.0147782E-1,-3.351053E-1,3.3396542E-2,2.2225009E-1,-1.920749E-1,1.250229E-1],"categories":[],"categories_nodes":[],"categories_segments":[],"categories_sizes":[],"default_left":[1,0,0,0,0,0,0,0,1,0,0,0,0,0,0,0,0,0,0,0,0,0,0],"id":58,"left_children":[1,3,5,-1,7,9,-1,11,13,15,-1,17,-1,-1,19,-1,-1,21,-1,-1,-1,-1,-1],"loss_changes":[1.8355973E0,1.5544257E0,1.3378404E0,0E0,1.6542143E0,6.932118E-1,0E0,6.351867E-1,1.0821155E0,1.6304941E0,0E0,7.696643E-1,0E0,0E0,2.5385892E-1,0E0,0E0,1.5849242E0,0E0,0E0,0E0,0E0,0E0],"parents":[2147483647,0,0,1,1,2,2,4,4,5,5,7,7,8,8,9,9,11,11,14,14,17,17],"right_children":[2,4,6,-1,8,10,-1,12,14,16,-1,18,-1,-1,20,-1,-1,22,-1,-1,-1,-1,-1],"split_conditions":[1.40202185E-2,-1.432412E-1,-2.9726315E-2,2.0299171E-1,1.3162241E-2,-5.9209004E-2,-7.514803E-2,4.8660237E-2,-3.9614357E-2,1.5318513E-1,3.8324356E-1,-2.2449213E-1,3.231096E-2,-8.821055E-2,2.947469E-1,-1.1047079E-1,2.576095E-1,-1.675641E-2,-3.351053E-1,3.3396542E-2,2.2225009E-1,-1.920749E-1,1.250229E-1],"split_indices":[0,0,2,0,3,2,0,2,0,3,0,3,0,0,3,0,0,2,0,0,0,0,0],"split_type":[0,0,0,0,0,0,0,0,0,0,0,0,0,0,0,0,0,0,0,0,0,0,0],"sum_hessian":[1.7523214E1,1.2851141E1,4.6720734E0,1.1828903E0,1.1668251E1,3.5923157E0,1.0797575E0,6.9332004E0,4.73505E0,2.5262158E0,1.0660999E0,5.871909E0,1.0612912E0,1.9675351E0,2.7675152E0,1.2900132E0,1.2362026E0,4.417323E0,1.4545864E0,1.4681208E0,1.2993944E0,3.0753145E0,1.3420086E0],"tree_param":{"num_deleted":"0","num_feature":"4","num_nodes":"23","size_leaf_vector":"0"}},{"base_weights":[9.334285E-2,-9.371114E-2,7.480586E-1,-1.9381563E-1,3.4694035E-2,9.126079E-2,2.9229164E-1,6.219696E-1,-2.7844262E-1,4.8338164E-2,2.4175146E-1,-4.3713537E-1,9.736653E-2,-7.002004E-2,-5.512267E-1,-2.0987849E-1,1.8076009E-1,-2.0510467E-2,-2.0836523E-1],"categories":[],"categories_nodes":[],"categories_segments":[],"categories_sizes":[],"default_left":[0,0,0,0,0,0,0,0,0,0,0,0,0,0,0,0,0,0,0],"id":59,"left_children":[1,3,5,-1,7,-1,-1,9,11,-1,-1,13,-1,15,17,-1,-1,-1,-1],"loss_changes":[2.4246528E0,1.146008E0,1.438222E-1,0E0,2.7115445E0,0E0,0E0,3.0311358E-1,1.0694658E0,0E0,0E0,3.0067253E-1,0E0,1.719741E0,3.701055E-1,0E0,0E0,0E0,0E0],"parents":[2147483647,0,0,1,1,2,2,4,4,7,7,8,8,11,11,13,13,14,14],"right_children":[2,4,6,-1,8,-1,-1,10,12,-1,-1,14,-1,16,18,-1,-1,-1,-1],"split_conditions":[1.3268442E-2,-3.976921E-1,4.6293758E-2,-1.9381563E-1,-1.5175949E-1,9.126079E-2,2.9229164E-1,2.1216199E-3,1.6787284E-3,4.8338164E-2,2.4175146E-1,-6.0510576E-1,9.736653E-2,-1.08584486E-1,-5.2607287E-2,-2.0987849E-1,1.8076009E-1,-2.0510467E-2,-2.0836523E-1],"split_indices":[2,1,2,0,1,0,0,3,2,0,0,3,0,2,2,0,0,0,0],"split_type":[0,0,0,0,0,0,0,0,0,0,0,0,0,0,0,0,0,0,0],"sum_hessian":[1.8225979E1,1.4842349E1,3.38363E0,2.0392146E0,1.2803134E1,1.9340092E0,1.4496208E0,4.10956E0,8.693574E0,1.7071447E0,2.402415E0,7.1000857E0,1.5934885E0,2.065993E0,5.034093E0,1.0463251E0,1.0196679E0,1.4902986E0,3.5437944E0],"tree_param":{"num_deleted":"0","num_feature":"4","num_nodes":"19","size_leaf_vector":"0"}},{"base_weights":[4.212572E-1,1.6970973E0,-1.9256698E-1,2.5703326E-1,9.492108E-1,2.7267534E-1,-3.9831275E-1,-8.321667E-2,2.3374473E-1,4.663254E-1,-7.024324E-1,2.0973477E-1,1.2072259E-2,-1.6336545E0,-9.2189245E-2,-6.437079E-2,-6.7192674E-1,-4.6239763E-1,3.9913562E-1,-1.37214055E-2,-2.4001208E-1,6.0726143E-3,1.6841115E-1],"categories":[],"categories_nodes":[],"categories_segments":[],"categories_sizes":[],"default_left":[1,0,0,0,0,0,0,0,0,0,0,0,0,0,0,0,0,0,0,0,0,0,0],"id":60,"left_children":[1,3,5,7,-1,-1,9,-1,-1,11,13,-1,-1,15,17,-1,-1,19,21,-1,-1,-1,-1],"loss_changes":[1.4700413E1,1.19964485E1,3.3738852E0,1.3736432E0,0E0,0E0,3.4550145E0,0E0,0E0,3.3844775E-1,5.076221E0,0E0,0E0,2.5998545E0,1.3880167E0,0E0,0E0,5.594082E-1,1.9639224E-1,0E0,0E0,0E0,0E0],"parents":[2147483647,0,0,1,1,2,2,3,3,6,6,9,9,10,10,13,13,14,14,17,17,18,18],"right_children":[2,4,6,8,-1,-1,10,-1,-1,12,14,-1,-1,16,18,-1,-1,20,22,-1,-1,-1,-1],"split_conditions":[-2.435318E-2,1.0407682E-2,-5.8712035E-2,1.0909775E-1,9.492108E-1,2.7267534E-1,6.7183375E-3,-8.321667E-2,2.3374473E-1,-1.2754735E-2,5.3242035E-2,2.0973477E-1,1.2072259E-2,2.3507275E-2,1.4904588E-1,-6.437079E-2,-6.7192674E-1,1.3313414E-1,6.4108896E-1,-1.37214055E-2,-2.4001208E-1,6.0726143E-3,1.6841115E-1],"split_indices":[3,0,0,2,0,0,2,0,0,2,2,0,0,2,0,0,0,2,3,0,0,0,0],"split_type":[0,0,0,0,0,0,0,0,0,0,0,0,0,0,0,0,0,0,0,0,0,0,0],"sum_hessian":[1.7353785E1,5.0638094E0,1.2289975E1,3.1483529E0,1.9154564E0,1.3964167E0,1.08935585E1,1.7874717E0,1.3608812E0,2.695802E0,8.197757E0,1.3289443E0,1.3668578E0,2.581449E0,5.6163077E0,1.1778125E0,1.4036365E0,3.2365074E0,2.3798E0,1.956992E0,1.2795155E0,1.0506997E0,1.3291004E0],"tree_param":{"num_deleted":"0","num_feature":"4","num_nodes":"23","size_leaf_vector":"0"}},{"base_weights":[6.427458E-2,-2.7346638E-1,5.0782645E-1,-9.217163E-1,6.3107055E-1,1.1500002E0,-5.374982E-1,-3.0959663E-1,-6.0361866E-2,2.2934769E-1,2.8158706E-1,3.2828115E-2,1.5098794E0,-3.092928E-1,5.5972535E-2,1.6271679E-1,-6.413892E-2,5.861107E-1,2.1026026E-2],"categories":[],"categories_nodes":[],"categories_segments":[],"categories_sizes":[],"default_left":[0,0,1,0,0,0,0,0,0,0,0,0,1,0,0,0,0,0,0],"id":61,"left_children":[1,3,5,7,9,11,13,-1,-1,15,-1,-1,17,-1,-1,-1,-1,-1,-1],"loss_changes":[3.0608666E0,7.455869E0,6.5131903E0,3.6724234E-1,4.6275425E-1,1.9912038E0,1.6299678E0,0E0,0E0,6.296444E-1,0E0,0E0,2.5472698E0,0E0,0E0,0E0,0E0,0E0,0E0],"parents":[2147483647,0,0,1,1,2,2,3,3,4,4,5,5,6,6,9,9,12,12],"right_children":[2,4,6,8,10,12,14,-1,-1,16,-1,-1,18,-1,-1,-1,-1,-1,-1],"split_conditions":[7.17154E-3,8.614813E-2,1.4061823E-1,3.6961254E-1,1.3422845E-1,-8.399325E-2,1.6109985E-1,-3.0959663E-1,-6.0361866E-2,-4.31239E-2,2.8158706E-1,3.2828115E-2,5.8065515E-2,-3.092928E-1,5.5972535E-2,1.6271679E-1,-6.413892E-2,5.861107E-1,2.1026026E-2],"split_indices":[0,2,0,3,3,2,0,0,0,0,0,0,2,0,0,0,0,0,0],"split_type":[0,0,0,0,0,0,0,0,0,0,0,0,0,0,0,0,0,0,0],"sum_hessian":[1.8505228E1,1.0723397E1,7.7818303E0,6.2355824E0,4.4878154E0,4.758442E0,3.0233884E0,5.0329905E0,1.2025917E0,2.7029564E0,1.784859E0,1.5579044E0,3.2005377E0,1.5459328E0,1.4774555E0,1.4527568E0,1.2501996E0,2.1735864E0,1.0269516E0],"tree_param":{"num_deleted":"0","num_feature":"4","num_nodes":"19","size_leaf_vector":"0"}},{"base_weights":[1.8542981E-1,-1.06723055E-1,6.100784E-1,-8.7643427E-1,1.708178E-1,1.0387594E0,-8.360368E-2,-6.800253E-2,-3.339038E-1,-1.464976E-1,7.3748755E-1,7.6920316E-2,1.2107081E0,-1.538347E-1,1.42558E-1,2.2828196E-1,-6.756679E-1,4.7188397E-2,2.8752208E-1,4.3949106E-1,1.18636124E-1,6.751315E-2,-9.686747E-1,-4.3109274E-1,1.3648828E-2],"categories":[],"categories_nodes":[],"categories_segments":[],"categories_sizes":[],"default_left":[1,0,0,0,1,0,0,0,0,1,0,0,0,0,0,0,0,0,0,0,0,0,0,0,0],"id":62,"left_children":[1,3,5,7,9,11,13,-1,-1,15,17,-1,19,-1,-1,-1,21,-1,-1,-1,-1,-1,23,-1,-1],"loss_changes":[2.5764003E0,2.8933156E0,2.5844889E0,2.9598355E-1,1.9558474E0,3.979354E-1,1.2349894E0,0E0,0E0,4.0779963E0,3.4330058E-1,0E0,2.598133E-1,0E0,0E0,0E0,1.5950124E0,0E0,0E0,0E0,0E0,0E0,2.0247178E0,0E0,0E0],"parents":[2147483647,0,0,1,1,2,2,3,3,4,4,5,5,6,6,9,9,10,10,12,12,16,16,22,22],"right_children":[2,4,6,8,10,12,14,-1,-1,16,18,-1,20,-1,-1,-1,22,-1,-1,-1,-1,-1,24,-1,-1],"split_conditions":[1.0619603E-2,-2.9973966E-1,1.4061823E-1,-2.2381123E-2,-1.5909757E-2,-7.0226975E-2,1.6109985E-1,-6.800253E-2,-3.339038E-1,-5.7686202E-2,5.29231E-4,7.6920316E-2,5.768507E-2,-1.538347E-1,1.42558E-1,2.2828196E-1,2.1557592E-2,4.7188397E-2,2.8752208E-1,4.3949106E-1,1.18636124E-1,6.751315E-2,3.3929038E-1,-4.3109274E-1,1.3648828E-2],"split_indices":[0,3,0,0,0,2,0,0,0,0,2,0,2,0,0,0,2,0,0,0,0,0,3,0,0],"split_type":[0,0,0,0,0,0,0,0,0,0,0,0,0,0,0,0,0,0,0,0,0,0,0,0,0],"sum_hessian":[1.9242174E1,1.1843011E1,7.3991632E0,2.5667422E0,9.276269E0,4.2656336E0,3.1335297E0,1.2077668E0,1.3589754E0,6.421774E0,2.8544946E0,1.2174491E0,3.0481846E0,1.8188926E0,1.3146372E0,2.2041106E0,4.2176633E0,1.2592828E0,1.5952119E0,1.7160376E0,1.332147E0,1.0921899E0,3.1254735E0,1.8529587E0,1.2725148E0],"tree_param":{"num_deleted":"0","num_feature":"4","num_nodes":"25","size_leaf_vector":"0"}},{"base_weights":[2.504857E-1,8.3935094E-1,9.899078E-2,4.4710302E-1,-8.0959156E-2,-4.336012E-1,4.4623885E-1,4.241805E-2,-2.3257878E-1,7.231009E-1,-6.047549E-2,1.8165742E-1,-2.0814879E-1,4.1288543E-2,4.6274647E-1,-1.9166468E-1,3.4230062E-1,-3.4732834E-1,1.6118188E-1,2.3501366E-1,-1.02633126E-1,-2.6066026E-2,-1.2945022E-1],"categories":[],"categories_nodes":[],"categories_segments":[],"categories_sizes":[],"default_left":[0,0,1,0,0,1,0,0,0,0,0,0,0,0,0,0,0,0,0,0,0,0,0],"id":63,"left_children":[1,3,5,-1,-1,7,9,11,-1,13,15,-1,-1,17,-1,-1,19,21,-1,-1,-1,-1,-1],"loss_changes":[1.746645E0,3.3361833E0,3.420199E0,0E0,0E0,1.2352787E0,1.5945082E0,2.0939255E0,0E0,3.9729798E0,1.343596E0,0E0,0E0,1.1448267E0,0E0,0E0,1.3238468E0,3.692752E-2,0E0,0E0,0E0,0E0,0E0],"parents":[2147483647,0,0,1,1,2,2,5,5,6,6,7,7,9,9,10,10,13,13,16,16,17,17],"right_children":[2,4,6,-1,-1,8,10,12,-1,14,16,-1,-1,18,-1,-1,20,22,-1,-1,-1,-1,-1],"split_conditions":[-3.5388034E-2,4.853217E-2,4.0880606E-2,4.4710302E-1,-8.0959156E-2,-1.15464125E-2,1.2178823E-1,2.0538079E-2,-2.3257878E-1,2.5453845E-2,1.3518786E-1,1.8165742E-1,-2.0814879E-1,9.387943E-2,4.6274647E-1,-1.9166468E-1,1.4020585E-1,7.933326E-2,1.6118188E-1,2.3501366E-1,-1.02633126E-1,-2.6066026E-2,-1.2945022E-1],"split_indices":[2,0,2,0,0,0,2,2,0,0,2,0,0,2,0,0,0,2,0,0,0,0,0],"split_type":[0,0,0,0,0,0,0,0,0,0,0,0,0,0,0,0,0,0,0,0,0,0,0],"sum_hessian":[1.9510382E1,3.0631948E0,1.6447187E1,1.7137827E0,1.3494121E0,6.3930945E0,1.0054092E1,3.0372698E0,3.3558247E0,6.2255144E0,3.828578E0,1.821601E0,1.2156688E0,3.9713461E0,2.2541683E0,1.3309993E0,2.4975789E0,2.3947306E0,1.5766156E0,1.4308467E0,1.066732E0,1.0812948E0,1.3134358E0],"tree_param":{"num_deleted":"0","num_feature":"4","num_nodes":"23","size_leaf_vector":"0"}},{"base_weights":[2.3418804E-1,-1.9992408E-1,4.047338E-1,1.199495E-1,-5.335762E-1,9.77624E-2,8.420711E-1,1.0373292E-1,-3.0012447E-1,-1.8344364E-1,2.951489E-1,1.2703987E0,-5.501021E-2,-1.7634499E-1,8.1485957E-1,4.377379E-1,1.0057878E-1,1.2487419E-1,-5.542991E-1,7.574064E-2,3.0892223E-1,-1.9884835E-1,-5.969917E-2],"categories":[],"categories_nodes":[],"categories_segments":[],"categories_sizes":[],"default_left":[1,0,0,0,0,0,0,0,0,0,0,0,0,0,0,0,0,0,0,0,0,0,0],"id":64,"left_children":[1,3,5,-1,7,9,11,-1,-1,-1,13,15,-1,17,19,-1,-1,-1,21,-1,-1,-1,-1],"loss_changes":[1.5886648E0,1.4967242E0,1.9249408E0,0E0,2.213458E0,1.5687456E0,2.883707E0,0E0,0E0,0E0,2.2098885E0,2.8436375E-1,0E0,1.4050593E0,2.4623251E-1,0E0,0E0,0E0,8.083105E-3,0E0,0E0,0E0,0E0],"parents":[2147483647,0,0,1,1,2,2,4,4,5,5,6,6,10,10,11,11,13,13,14,14,18,18],"right_children":[2,4,6,-1,8,10,12,-1,-1,-1,14,16,-1,18,20,-1,-1,-1,22,-1,-1,-1,-1],"split_conditions":[-1.1660563E-2,3.1605217E-1,2.5453845E-2,1.199495E-1,-3.8415277E-1,-5.4287976E-1,5.5718917E-1,1.0373292E-1,-3.0012447E-1,-1.8344364E-1,2.1078725E-1,6.4108896E-1,-5.501021E-2,1.1068975E-2,5.394892E-1,4.377379E-1,1.0057878E-1,1.2487419E-1,-4.546838E-2,7.574064E-2,3.0892223E-1,-1.9884835E-1,-5.969917E-2],"split_indices":[1,3,0,0,1,3,1,0,0,0,1,3,0,1,1,0,0,0,0,0,0,0,0],"split_type":[0,0,0,0,0,0,0,0,0,0,0,0,0,0,0,0,0,0,0,0,0,0,0],"sum_hessian":[1.9365078E1,5.4133983E0,1.395168E1,1.8641499E0,3.5492482E0,8.916582E0,5.035098E0,1.3207549E0,2.2284935E0,1.4845352E0,7.4320464E0,3.383091E0,1.652007E0,4.2432003E0,3.188846E0,2.348737E0,1.0343539E0,1.6129491E0,2.6302514E0,1.4828435E0,1.7060027E0,1.3518027E0,1.2784487E0],"tree_param":{"num_deleted":"0","num_feature":"4","num_nodes":"23","size_leaf_vector":"0"}},{"base_weights":[2.6866126E-1,4.3457317E-1,-3.9954787E-1,7.536091E-2,9.122006E-1,-2.0602165E-1,8.606782E-2,-1.6800392E-1,2.3972914E-1,1.1820825E-1,1.0293415E0,-4.0035196E-2,5.6358075E-1,1.301564E0,9.928114E-2,1.4976573E-1,-1.4185005E-1,5.0566E-2,2.1603014E-1,4.8849583E-1,1.3884577E-1,-5.8765106E-2,1.8666819E-1],"categories":[],"categories_nodes":[],"categories_segments":[],"categories_sizes":[],"default_left":[0,0,1,0,0,0,0,0,0,0,0,0,0,0,0,0,0,0,0,0,0,0,0],"id":65,"left_children":[1,3,5,7,9,-1,-1,-1,11,-1,13,15,17,19,-1,21,-1,-1,-1,-1,-1,-1,-1],"loss_changes":[2.4263463E0,2.8062372E0,1.0965085E0,1.2469156E0,2.5547981E-2,0E0,0E0,0E0,8.5289925E-1,0E0,5.527601E-1,5.514215E-1,1.4535499E-1,1.7305422E-1,0E0,9.10087E-1,0E0,0E0,0E0,0E0,0E0,0E0,0E0],"parents":[2147483647,0,0,1,1,2,2,3,3,4,4,8,8,10,10,11,11,12,12,13,13,15,15],"right_children":[2,4,6,8,10,-1,-1,-1,12,-1,14,16,18,20,-1,22,-1,-1,-1,-1,-1,-1,-1],"split_conditions":[1.3525271E-1,-1.654558E-3,1.8673073E-1,-2.0690714E-1,2.0314982E-2,-2.0602165E-1,8.606782E-2,-1.6800392E-1,6.425921E-2,1.1820825E-1,-3.6270255E-1,-1.5511949E-2,-4.939747E-2,3.45535E-2,9.928114E-2,-3.4888722E-2,-1.4185005E-1,5.0566E-2,2.1603014E-1,4.8849583E-1,1.3884577E-1,-5.8765106E-2,1.8666819E-1],"split_indices":[0,0,0,1,0,0,0,0,3,0,3,0,0,0,0,0,0,0,0,0,0,0,0],"split_type":[0,0,0,0,0,0,0,0,0,0,0,0,0,0,0,0,0,0,0,0,0,0,0],"sum_hessian":[1.9319637E1,1.5756939E1,3.5626988E0,9.6541E0,6.102838E0,2.5115075E0,1.0511913E0,1.4894582E0,8.164642E0,1.9298486E0,4.1729894E0,4.850682E0,3.3139603E0,2.381218E0,1.7917713E0,3.8265378E0,1.0241442E0,1.5298294E0,1.784131E0,1.0361727E0,1.3450453E0,2.5479062E0,1.2786318E0],"tree_param":{"num_deleted":"0","num_feature":"4","num_nodes":"23","size_leaf_vector":"0"}},{"base_weights":[8.1001125E-2,-3.7427086E-1,3.0198085E-1,9.792331E-2,-5.878725E-1,-1.0932814E-1,6.082148E-1,-2.5768256E-1,-2.73174E-1,2.0743428E-1,-3.773869E-1,3.4156895E-1,1.842272E-1,7.70829E-2,-2.1252513E-1,-2.4596146E-1,-4.5051202E-2,5.04755E-1,-9.5299326E-2,-4.2138085E-1,1.678142E-1,9.00263E-3,2.670598E-1,-2.770844E-3,-1.8488437E-1],"categories":[],"categories_nodes":[],"categories_segments":[],"categories_sizes":[],"default_left":[0,0,1,0,0,0,0,0,0,0,0,0,0,0,0,0,0,0,0,0,0,0,0,0,0],"id":66,"left_children":[1,3,5,-1,7,9,11,-1,13,-1,15,-1,17,-1,-1,-1,19,21,-1,23,-1,-1,-1,-1,-1],"loss_changes":[2.140252E0,1.2442048E0,1.8448974E0,0E0,2.5547397E-1,1.7363576E0,1.6443882E0,0E0,1.1338062E0,0E0,8.1546164E-1,0E0,1.0894321E0,0E0,0E0,0E0,1.2293781E0,6.8890977E-1,0E0,2.5638014E-1,0E0,0E0,0E0,0E0,0E0],"parents":[2147483647,0,0,1,1,2,2,4,4,5,5,6,6,8,8,10,10,12,12,16,16,17,17,19,19],"right_children":[2,4,6,-1,8,10,12,-1,14,-1,16,-1,18,-1,-1,-1,20,22,-1,24,-1,-1,-1,-1,-1],"split_conditions":[-1.1660563E-2,-3.65701E-1,7.17154E-3,9.792331E-2,-2.0690714E-1,-6.682803E-2,1.9059929E-1,-2.5768256E-1,-1.2510443E-3,2.0743428E-1,-2.9973966E-1,3.4156895E-1,8.181029E-2,7.70829E-2,-2.1252513E-1,-2.4596146E-1,-2.30751E-2,5.841469E-1,-9.5299326E-2,2.0160234E-1,1.678142E-1,9.00263E-3,2.670598E-1,-2.770844E-3,-1.8488437E-1],"split_indices":[1,1,0,0,1,0,1,0,0,0,3,0,0,0,0,0,0,1,0,1,0,0,0,0,0],"split_type":[0,0,0,0,0,0,0,0,0,0,0,0,0,0,0,0,0,0,0,0,0,0,0,0,0],"sum_hessian":[1.9150211E1,6.031064E0,1.3119147E1,1.2856361E0,4.745428E0,5.873424E0,7.2457232E0,1.6203275E0,3.1251006E0,1.0769058E0,4.7965183E0,2.4703262E0,4.775397E0,1.5936835E0,1.5314171E0,1.428097E0,3.3684213E0,2.9107633E0,1.8646336E0,2.2625604E0,1.105861E0,1.787267E0,1.1234963E0,1.0627058E0,1.1998546E0],"tree_param":{"num_deleted":"0","num_feature":"4","num_nodes":"25","size_leaf_vector":"0"}},{"base_weights":[8.001261E-2,2.4123012E-1,-4.374719E-1,7.1679497E-1,5.2501276E-2,-1.9057795E-1,2.3411555E-2,1.9879628E-2,2.7993944E-1,-1.4447442E-1,2.3570827E-1,-1.05583236E-1,6.506187E-1,-3.093265E-1,9.503162E-2,2.5064418E-1,2.7693352E-1,-9.654252E-3,-1.9335707E-1,-8.695044E-2,1.9726138E-1],"categories":[],"categories_nodes":[],"categories_segments":[],"categories_sizes":[],"default_left":[0,0,1,0,0,0,0,0,0,0,0,0,0,0,0,0,0,0,0,0,0],"id":67,"left_children":[1,3,5,7,9,-1,-1,-1,-1,-1,11,13,15,17,-1,19,-1,-1,-1,-1,-1],"loss_changes":[1.6760986E0,1.3085082E0,5.417648E-1,5.2672005E-1,1.2697061E0,0E0,0E0,0E0,0E0,0E0,1.4096396E0,6.1912763E-1,2.4965274E-1,4.0578324E-1,0E0,8.857633E-1,0E0,0E0,0E0,0E0,0E0],"parents":[2147483647,0,0,1,1,2,2,3,3,4,4,10,10,11,11,12,12,13,13,15,15],"right_children":[2,4,6,8,10,-1,-1,-1,-1,-1,12,14,16,18,-1,20,-1,-1,-1,-1,-1],"split_conditions":[8.181029E-2,-3.6270255E-1,8.843617E-1,-7.363823E-1,-2.2586082E-1,-1.9057795E-1,2.3411555E-2,1.9879628E-2,2.7993944E-1,-1.4447442E-1,-1.0596105E-2,3.6961254E-1,-4.8328727E-2,2.724437E-1,9.503162E-2,1.3422845E-1,2.7693352E-1,-9.654252E-3,-1.9335707E-1,-8.695044E-2,1.9726138E-1],"split_indices":[0,3,3,3,3,0,0,0,0,0,1,3,0,3,0,3,0,0,0,0,0],"split_type":[0,0,0,0,0,0,0,0,0,0,0,0,0,0,0,0,0,0,0,0,0],"sum_hessian":[1.782552E1,1.3998315E1,3.8272047E0,3.182056E0,1.0816259E1,2.5980916E0,1.229113E0,1.120123E0,2.0619328E0,2.3466668E0,8.469592E0,5.056122E0,3.41347E0,3.5913014E0,1.4648205E0,2.1611216E0,1.2523484E0,2.565837E0,1.0254645E0,1.0517569E0,1.1093649E0],"tree_param":{"num_deleted":"0","num_feature":"4","num_nodes":"21","size_leaf_vector":"0"}},{"base_weights":[3.1421404E-2,-2.8880462E-1,6.260193E-1,3.230758E-1,-4.5606738E-1,3.2356548E-1,1.735105E-1,2.4743393E-1,-8.3085306E-2,-2.3427561E-1,-2.5358704E-1,-9.623411E-2,4.9094006E-1,7.6545544E-2,-4.4609973E-1,2.5782704E-1,-5.12863E-2,-2.0157781E-1,1.8875485E-2],"categories":[],"categories_nodes":[],"categories_segments":[],"categories_sizes":[],"default_left":[0,0,1,0,0,0,0,0,0,0,0,0,0,0,0,0,0,0,0],"id":68,"left_children":[1,3,5,7,9,-1,11,-1,-1,-1,13,-1,15,-1,17,-1,-1,-1,-1],"loss_changes":[3.844273E0,1.4972467E0,1.2566481E0,1.2570202E0,5.105672E-1,0E0,8.97611E-1,0E0,0E0,0E0,9.0882045E-1,0E0,9.438889E-1,0E0,7.610254E-1,0E0,0E0,0E0,0E0],"parents":[2147483647,0,0,1,1,2,2,3,3,4,4,6,6,10,10,12,12,14,14],"right_children":[2,4,6,8,10,-1,12,-1,-1,-1,14,-1,16,-1,18,-1,-1,-1,-1],"split_conditions":[9.387943E-2,-4.963237E-2,1.2962022E-1,3.45535E-2,-2.720969E-2,3.2356548E-1,1.4040868E-1,2.4743393E-1,-8.3085306E-2,-2.3427561E-1,-1.15464125E-2,-9.623411E-2,6.7775923E-1,7.6545544E-2,4.0880606E-2,2.5782704E-1,-5.12863E-2,-2.0157781E-1,1.8875485E-2],"split_indices":[2,2,2,0,0,0,2,0,0,0,0,0,3,0,2,0,0,0,0],"split_type":[0,0,0,0,0,0,0,0,0,0,0,0,0,0,0,0,0,0,0],"sum_hessian":[1.8240366E1,1.2189752E1,6.0506144E0,2.416858E0,9.772894E0,2.3335E0,3.7171142E0,1.1122742E0,1.3045838E0,2.6555972E0,7.1172967E0,1.4494783E0,2.2676358E0,1.8645673E0,5.2527294E0,1.2649792E0,1.0026567E0,3.4168131E0,1.8359162E0],"tree_param":{"num_deleted":"0","num_feature":"4","num_nodes":"19","size_leaf_vector":"0"}},{"base_weights":[3.7875675E-2,-2.1284185E-1,1.6202562E-1,-1.03743106E-1,4.7384772E-1,1.5879878E-1,-4.8131096E-1,8.919046E-1,-1.2845169E-2,-1.9528714E-1,2.1937193E-1,-3.049189E-1,2.1608695E-2,1.0342158E-1,3.1573257E-1,-1.0948579E-1,1.8134774E-1,1.17926404E-1,-1.4692548E-1,-5.3657755E-2,1.2913218E-1,-1.23971E-1,1.7527346E-1],"categories":[],"categories_nodes":[],"categories_segments":[],"categories_sizes":[],"default_left":[0,0,1,1,0,1,0,0,0,1,0,0,0,0,0,0,0,1,0,0,0,0,0],"id":69,"left_children":[1,-1,3,5,7,9,11,13,15,17,-1,-1,-1,-1,-1,-1,19,21,-1,-1,-1,-1,-1],"loss_changes":[1.8951946E0,0E0,1.4801912E0,1.0818545E0,1.6646394E0,1.5078596E0,1.3783897E0,2.2359848E-2,3.9030123E-1,5.143035E-1,0E0,0E0,0E0,0E0,0E0,0E0,4.110552E-1,1.0351884E0,0E0,0E0,0E0,0E0,0E0],"parents":[2147483647,0,0,2,2,3,3,4,4,5,5,6,6,7,7,8,8,9,9,16,16,17,17],"right_children":[2,-1,4,6,8,10,12,14,16,18,-1,-1,-1,-1,-1,-1,20,22,-1,-1,-1,-1,-1],"split_conditions":[-5.943297E-1,-2.1284185E-1,8.3858825E-2,2.3507275E-2,1.2178823E-1,2.4504075E-3,5.050339E-2,1.3422845E-1,1.6379453E-1,1.437899E-1,2.1937193E-1,-3.049189E-1,2.1608695E-2,1.0342158E-1,3.1573257E-1,-1.0948579E-1,1.4040868E-1,-1.4028888E-2,-1.4692548E-1,-5.3657755E-2,1.2913218E-1,-1.23971E-1,1.7527346E-1],"split_indices":[3,0,2,2,2,2,2,3,1,1,0,0,0,0,0,0,2,1,0,0,0,0,0],"split_type":[0,0,0,0,0,0,0,0,0,0,0,0,0,0,0,0,0,0,0,0,0,0,0],"sum_hessian":[1.81871E1,1.9192281E0,1.6267872E1,9.142736E0,7.1251345E0,5.7345986E0,3.408138E0,3.384959E0,3.7401757E0,3.9500992E0,1.7844996E0,1.3072119E0,2.1009262E0,1.4818184E0,1.9031404E0,1.0169421E0,2.7232335E0,2.2046247E0,1.7454746E0,1.2285769E0,1.4946566E0,1.0838686E0,1.1207559E0],"tree_param":{"num_deleted":"0","num_feature":"4","num_nodes":"23","size_leaf_vector":"0"}},{"base_weights":[-8.245009E-2,-5.361301E-1,7.589835E-2,-6.3694805E-1,3.5334828E-1,2.8253415E-1,-4.0376392E-1,-2.3539579E-1,9.6971375E-1,3.078805E-1,-1.4159963E-1,9.973829E-1,-9.943341E-1,4.204323E-1,1.3729813E0,4.0529916E-1,3.976132E-3,-1.928281E-1,-6.353193E-1,2.7835298E-1,7.8091834E-4,4.8635545E-1,9.011839E-2,-2.5794098E-1,1.1708055E-1,-1.3544664E-1,1.5734942E-1],"categories":[],"categories_nodes":[],"categories_segments":[],"categories_sizes":[],"default_left":[0,0,0,0,1,0,0,1,0,0,0,0,0,0,0,0,0,0,0,0,0,0,0,0,0,0,0],"id":70,"left_children":[1,-1,3,5,7,9,-1,11,13,-1,-1,15,17,19,21,-1,-1,23,-1,-1,25,-1,-1,-1,-1,-1,-1],"loss_changes":[6.396817E0,0E0,4.6124773E0,4.6641498E0,6.2562685E0,2.5537634E0,0E0,9.693571E0,1.2636366E0,0E0,0E0,1.3891611E0,5.225962E0,1.0553865E0,6.713114E-1,0E0,0E0,2.1837115E0,0E0,0E0,1.1168588E0,0E0,0E0,0E0,0E0,0E0,0E0],"parents":[2147483647,0,0,2,2,3,3,4,4,5,5,7,7,8,8,11,11,12,12,13,13,14,14,17,17,20,20],"right_children":[2,-1,4,6,8,10,-1,12,14,-1,-1,16,18,20,22,-1,-1,24,-1,-1,26,-1,-1,-1,-1,-1,-1],"split_conditions":[-1.7238061E-1,-5.361301E-1,-2.6522946E-1,-3.372536E-2,3.5318673E-2,-4.6341616E-1,-4.0376392E-1,-7.741233E-3,1.6970912E-1,3.078805E-1,-1.4159963E-1,7.6950444E-3,-3.5540764E-3,-5.818934E-2,5.958136E-1,4.0529916E-1,3.976132E-3,2.2176939E-1,-6.353193E-1,2.7835298E-1,7.6758144E-3,4.8635545E-1,9.011839E-2,-2.5794098E-1,1.1708055E-1,-1.3544664E-1,1.5734942E-1],"split_indices":[0,0,3,2,2,3,0,3,3,0,0,0,0,0,3,0,0,3,0,0,0,0,0,0,0,0,0],"split_type":[0,0,0,0,0,0,0,0,0,0,0,0,0,0,0,0,0,0,0,0,0,0,0,0,0,0,0],"sum_hessian":[2.219568E1,1.0122926E0,2.1183388E1,5.5718994E0,1.5611488E1,2.6875803E0,2.884319E0,8.300782E0,7.310706E0,1.1721091E0,1.5154712E0,3.0432725E0,5.25751E0,3.9597652E0,3.350941E0,1.964581E0,1.0786914E0,3.7521348E0,1.5053751E0,1.2442843E0,2.7154808E0,2.3058746E0,1.0450664E0,1.5288324E0,2.2233024E0,1.5311396E0,1.1843412E0],"tree_param":{"num_deleted":"0","num_feature":"4","num_nodes":"27","size_leaf_vector":"0"}},{"base_weights":[-2.7968043E-1,2.6297218E-1,-3.7603638E-1,-5.254364E-1,4.2227343E-1,-1.80098E-1,-1.2816659E0,-6.0105495E-2,2.5246802E-1,-7.029879E-1,2.5759795E-1,-4.6076214E-1,-9.732174E-2,-3.5848412E-1,-3.850789E-1,-1.4902933E-1,4.9196887E-1,-3.124256E-1,1.76294E-2,-1.6976711E-1,2.5365874E-1],"categories":[],"categories_nodes":[],"categories_segments":[],"categories_sizes":[],"default_left":[0,0,0,0,1,0,0,0,0,0,0,0,0,0,0,0,0,0,0,0,0],"id":71,"left_children":[1,-1,3,5,7,9,11,-1,-1,13,15,-1,-1,-1,17,-1,19,-1,-1,-1,-1],"loss_changes":[2.8573084E0,0E0,2.8030996E0,4.646534E0,1.2040142E0,3.3817196E0,8.8671875E-1,0E0,0E0,5.7839227E-1,1.7196745E0,0E0,0E0,0E0,1.6660993E0,0E0,3.047524E0,0E0,0E0,0E0,0E0],"parents":[2147483647,0,0,2,2,3,3,4,4,5,5,6,6,9,9,10,10,14,14,16,16],"right_children":[2,-1,4,6,8,10,12,-1,-1,14,16,-1,-1,-1,18,-1,20,-1,-1,-1,-1],"split_conditions":[-1.4774342E-1,2.6297218E-1,8.750004E-2,-3.5540764E-3,3.199043E-1,-4.8182584E-2,4.862109E-2,-6.0105495E-2,2.5246802E-1,-1.6189377E-1,-4.8072733E-2,-4.6076214E-1,-9.732174E-2,-3.5848412E-1,-1.4416208E-2,-1.4902933E-1,-3.1799755E-1,-3.124256E-1,1.76294E-2,-1.6976711E-1,2.5365874E-1],"split_indices":[2,0,0,0,3,0,2,0,0,0,2,0,0,0,2,0,3,0,0,0,0],"split_type":[0,0,0,0,0,0,0,0,0,0,0,0,0,0,0,0,0,0,0,0,0],"sum_hessian":[2.1687727E1,1.0454357E0,2.0642292E1,1.7676104E1,2.9661875E0,1.2984691E1,4.691413E0,1.4037826E0,1.5624049E0,5.640365E0,7.344326E0,3.2293787E0,1.4620342E0,1.1311531E0,4.509212E0,1.475527E0,5.8687987E0,1.2759778E0,3.2332342E0,1.3196955E0,4.5491033E0],"tree_param":{"num_deleted":"0","num_feature":"4","num_nodes":"21","size_leaf_vector":"0"}},{"base_weights":[-2.3154776E-1,3.090612E-1,-3.5198668E-1,-9.7262317E-1,-3.208541E-2,7.466695E-3,-5.278097E-1,3.0162042E-1,-2.5841212E-1,-1.9495349E-1,2.5603747E-1,-5.188558E-1,1.9796173E-1,-2.8614643E-1,-4.1116092E-1,-1.7971693E-1,2.5854173E-1],"categories":[],"categories_nodes":[],"categories_segments":[],"categories_sizes":[],"default_left":[0,0,0,0,0,0,0,0,0,0,0,0,0,0,0,0,0],"id":72,"left_children":[1,-1,3,5,7,9,-1,-1,11,-1,-1,13,-1,15,-1,-1,-1],"loss_changes":[3.8602161E0,0E0,4.288238E0,5.692583E0,3.8735929E0,2.9321663E0,0E0,0E0,3.554222E0,0E0,0E0,1.7923429E0,0E0,4.0798244E0,0E0,0E0,0E0],"parents":[2147483647,0,0,2,2,3,3,4,4,5,5,8,8,11,11,13,13],"right_children":[2,-1,4,6,8,10,-1,-1,12,-1,-1,14,-1,16,-1,-1,-1],"split_conditions":[-5.373093E-1,3.090612E-1,-1.2834555E-1,1.8898858E-2,-7.741233E-3,-3.190687E-2,-5.278097E-1,3.0162042E-1,1.00722775E-1,-1.9495349E-1,2.5603747E-1,4.948925E-1,1.9796173E-1,4.0966517E-1,-4.1116092E-1,-1.7971693E-1,2.5854173E-1],"split_indices":[3,0,3,2,3,2,0,0,2,0,0,3,0,3,0,0,0],"split_type":[0,0,0,0,0,0,0,0,0,0,0,0,0,0,0,0,0],"sum_hessian":[2.2015963E1,1.2601835E0,2.075578E1,6.3655906E0,1.4390188E1,3.2755547E0,3.090036E0,1.9605817E0,1.2429606E1,1.9738121E0,1.3017426E0,1.0022111E1,2.4074962E0,8.9206505E0,1.1014601E0,7.385622E0,1.5350286E0],"tree_param":{"num_deleted":"0","num_feature":"4","num_nodes":"17","size_leaf_vector":"0"}},{"base_weights":[-1.00146085E-1,5.0212187E-1,-3.1295192E-1,-9.377498E-3,1.1206512E0,-4.854869E-1,2.2780246E-1,2.1886571E-1,-2.4521743E-1,1.547047E-2,4.849878E-1,-1.0427806E-1,-3.550043E-1,2.3733194E-1,-2.735065E-1,-2.3287575E-1,3.5552227E-1,3.1283686E-1,-2.0771997E-1,1.2286008E-1,-2.1624878E-1],"categories":[],"categories_nodes":[],"categories_segments":[],"categories_sizes":[],"default_left":[0,0,1,0,0,0,0,0,0,0,0,0,0,0,0,0,0,0,0,0,0],"id":73,"left_children":[1,3,5,7,9,11,13,-1,-1,-1,-1,15,-1,-1,-1,-1,17,-1,19,-1,-1],"loss_changes":[3.3796628E0,2.20888E0,1.9014472E0,3.4592903E0,1.5887494E0,3.8327918E0,4.1383405E0,0E0,0E0,0E0,0E0,3.5863817E0,0E0,0E0,0E0,0E0,2.944589E0,0E0,1.7859964E0,0E0,0E0],"parents":[2147483647,0,0,1,1,2,2,3,3,4,4,5,5,6,6,11,11,16,16,18,18],"right_children":[2,4,6,8,10,12,14,-1,-1,-1,-1,16,-1,-1,-1,-1,18,-1,20,-1,-1],"split_conditions":[-4.5654487E-2,-1.4036618E-1,9.556788E-2,-3.3324024E-1,-1.5182738E-2,-5.099167E-3,5.417465E-1,2.1886571E-1,-2.4521743E-1,1.547047E-2,4.849878E-1,-7.0261344E-2,-3.550043E-1,2.3733194E-1,-2.735065E-1,-2.3287575E-1,-3.1750195E-2,3.1283686E-1,1.8898858E-2,1.2286008E-1,-2.1624878E-1],"split_indices":[2,1,2,1,0,0,1,0,0,0,0,0,0,0,0,0,1,0,2,0,0],"split_type":[0,0,0,0,0,0,0,0,0,0,0,0,0,0,0,0,0,0,0,0,0],"sum_hessian":[2.4143326E1,5.9485717E0,1.8194754E1,3.7950525E0,2.1535192E0,1.3871174E1,4.3235803E0,2.032987E0,1.7620654E0,1.0323157E0,1.1212033E0,9.7141905E0,4.156984E0,3.097886E0,1.2256943E0,3.6669273E0,6.0472627E0,2.3402674E0,3.7069952E0,1.774359E0,1.9326364E0],"tree_param":{"num_deleted":"0","num_feature":"4","num_nodes":"21","size_leaf_vector":"0"}},{"base_weights":[-6.818174E-2,-2.9529467E-1,1.3929919E-2,1.988617E-1,-4.4764847E-1,3.673851E-1,5.3917408E-2,-7.2156054E-1,1.7850828E-1,-4.30174E-2,2.1459775E-1,-3.1354374E-1,-2.928789E-1,7.317164E-2,-2.4963723E-1,1.7805155E-2,-1.7020081E-1,1.6161895E-1,-4.4692658E-2],"categories":[],"categories_nodes":[],"categories_segments":[],"categories_sizes":[],"default_left":[1,0,0,0,0,0,0,0,0,0,0,0,0,0,0,0,0,0,0],"id":74,"left_children":[1,-1,3,5,7,-1,9,11,-1,13,-1,-1,15,17,-1,-1,-1,-1,-1],"loss_changes":[1.90825E0,0E0,2.1461494E0,2.595029E0,2.4859965E0,0E0,1.1032798E0,5.476744E-1,0E0,1.4850643E0,0E0,0E0,4.2391998E-1,1.5756264E0,0E0,0E0,0E0,0E0,0E0],"parents":[2147483647,0,0,2,2,3,3,4,4,6,6,7,7,9,9,12,12,13,13],"right_children":[2,-1,4,6,8,-1,10,12,-1,14,-1,-1,16,18,-1,-1,-1,-1,-1],"split_conditions":[-1.7238061E-1,-2.9529467E-1,2.0887654E-1,-4.6341616E-1,2.9148087E-1,3.673851E-1,8.4282294E-2,-3.6882842E-1,1.7850828E-1,5.285419E-2,2.1459775E-1,-3.1354374E-1,5.35588E-1,-3.288768E-1,-2.4963723E-1,1.7805155E-2,-1.7020081E-1,1.6161895E-1,-4.4692658E-2],"split_indices":[0,0,1,3,3,0,0,3,0,0,0,0,1,1,0,0,0,0,0],"split_type":[0,0,0,0,0,0,0,0,0,0,0,0,0,0,0,0,0,0,0],"sum_hessian":[2.418487E1,1.0855603E0,2.309931E1,1.6898201E1,6.2011085E0,1.1699202E0,1.5728281E1,5.1548867E0,1.0462217E0,1.4533272E1,1.195009E0,2.1180532E0,3.0368335E0,1.3458847E1,1.0744245E0,1.6732244E0,1.3636091E0,3.8872204E0,9.571627E0],"tree_param":{"num_deleted":"0","num_feature":"4","num_nodes":"19","size_leaf_vector":"0"}},{"base_weights":[-1.4406417E-1,-5.730904E-1,1.9371405E-1,-2.6301983E-1,-3.1560183E-1,5.2280647E-1,-2.9248843E-1,-2.5807714E-1,3.7665322E-1,2.2461797E-1,7.6751673E-1,-5.797191E-1,1.6330558E-1,1.9599144E-1,-4.1057713E-2,2.0667966E-1,-1.1011834E-1,9.299588E-1,3.9462663E-2,-5.8377404E-2,-2.0514964E-1,8.804694E-2,-1.17033936E-1,3.5128406E-1,7.4274026E-2],"categories":[],"categories_nodes":[],"categories_segments":[],"categories_sizes":[],"default_left":[1,0,0,0,0,0,0,0,0,0,0,0,0,0,0,0,0,0,0,0,0,0,0,0,0],"id":75,"left_children":[1,3,5,7,-1,9,11,-1,13,15,17,19,-1,-1,-1,-1,21,23,-1,-1,-1,-1,-1,-1,-1],"loss_changes":[3.5555024E0,1.3156204E0,2.4003606E0,3.320007E0,0E0,4.65003E-1,1.8325014E0,0E0,7.26147E-1,9.075438E-1,3.305838E-1,7.4736714E-2,0E0,0E0,0E0,0E0,5.633182E-1,2.5726223E-1,0E0,0E0,0E0,0E0,0E0,0E0,0E0],"parents":[2147483647,0,0,1,1,2,2,3,3,5,5,6,6,8,8,9,9,10,10,11,11,16,16,17,17],"right_children":[2,4,6,8,-1,10,12,-1,14,16,18,20,-1,-1,-1,-1,22,24,-1,-1,-1,-1,-1,-1,-1],"split_conditions":[-3.8510986E-2,-1.0514918E-3,2.0887654E-1,-4.988322E-2,-3.1560183E-1,-1.5801655E-2,2.9148087E-1,-2.5807714E-1,-1.4408257E-2,-5.0028652E-2,1.9393317E-1,3.8621104E-1,1.6330558E-1,1.9599144E-1,-4.1057713E-2,2.0667966E-1,